// This file is generated. Do not edit.
// Generated on: 19.12.2023 15:59:48


#include "lib_tflite_micro/api/xcore_config.h"
#include "lib_nn/api/version.h"
#include "lib_tflite_micro/api/version.h"
#include "tensorflow/lite/c/builtin_op_data.h"
#include "tensorflow/lite/c/common.h"
#include "tensorflow/lite/micro/kernels/conv.h"
#include "tensorflow/lite/micro/kernels/fully_connected.h"
#include "tensorflow/lite/micro/kernels/micro_ops.h"
#include "tensorflow/lite/micro/kernels/reduce.h"
#include "tensorflow/lite/micro/kernels/softmax.h"
#include "tensorflow/lite/micro/micro_context.h"

// #define TFLMC_XCORE_PROFILE
// #define TFLMC_CONV2D_PROFILE
// #define TFLMC_PRINT_TENSORS
// #define TFLMC_PRINT_INPUT_TENSORS

#if defined __GNUC__
#define ALIGN(X) __attribute__((aligned(X)))
#elif defined _MSC_VER
#define ALIGN(X) __declspec(align(X))
#elif defined __TASKING__
#define ALIGN(X) __align(X)
#endif

// Check lib_nn and lib_tflite_micro versions
// NOTE: xformer version is saved for debugging purposes
// If lib_nn and lib_tflite_micro versions are as expected,
// then the xformer version doesn't matter as the model should execute
// If major version is zero, then minor versions must match
// Otherwise, major versions must match and binary minor version
// must be less or equal to runtime minor version
// Check if runtime lib_tflite_micro version matches with compiled version
static_assert((0 == 0 && lib_tflite_micro::major_version == 0 && 6 == lib_tflite_micro::minor_version) ||
              (0 == lib_tflite_micro::major_version) ||
              (6  < lib_tflite_micro::minor_version),
             "Model has been compiled with lib_tflite_micro version incompatible with runtime lib_tflite_micro version!");

// Check if runtime lib_nn version matches with compiled version
static_assert((0 == 0 && lib_nn::major_version == 0 && 3 == lib_nn::minor_version) ||
              (0 == lib_nn::major_version) ||
              (3  < lib_nn::minor_version),
             "Model has been compiled with lib_nn version incompatible with runtime lib_nn version!");

namespace tflite {
namespace ops {
namespace micro {
namespace xcore {
extern TFLMRegistration *Register_XC_mul(void);
extern TFLMRegistration *Register_XC_add(void);
extern TFLMRegistration *Register_XC_pad(void);
extern TFLMRegistration *Register_XC_conv2d_v2(void);
extern TFLMRegistration *Register_XC_lookup(void);
} // namespace xcore
}  // namespace micro
}  // namespace ops
}  // namespace tflite



constexpr int kTensorArenaSize = 13064;
#ifndef SHARED_TENSOR_ARENA
namespace {
uint8_t tensor_arena[kTensorArenaSize] ALIGN(8);
}
#else
extern uint8_t tensor_arena[];
#endif

namespace {
template <int SZ, class T> struct TfArray {
  int sz; T elem[SZ];
};
enum used_operators_e {
  OP_XC_mul, OP_XC_add, OP_PAD, OP_XC_pad, OP_XC_conv2d_v2, OP_TRANSPOSE, OP_UNPACK, OP_SPLIT, OP_SPLIT_V, OP_XC_lookup, OP_SUB, OP_PACK, OP_CONCATENATION, OP_STRIDED_SLICE,  OP_LAST
};

#if defined(TFLMC_XCORE_PROFILE) || defined(TFLMC_PRINT_TENSORS) || defined(TFLMC_PRINT_INPUT_TENSORS) || defined(TFLMC_CONV2D_PROFILE)
const char *op_strs[] = {
"OP_XC_mul", "OP_XC_add", "OP_PAD", "OP_XC_pad", "OP_XC_conv2d_v2", "OP_TRANSPOSE", "OP_UNPACK", "OP_SPLIT", "OP_SPLIT_V", "OP_XC_lookup", "OP_SUB", "OP_PACK", "OP_CONCATENATION", "OP_STRIDED_SLICE", };

#endif
#if defined(TFLMC_XCORE_PROFILE) || defined(TFLMC_PRINT_TENSORS) || defined(TFLMC_PRINT_INPUT_TENSORS)
unsigned char checksum(char *data, unsigned int length)
{
  static char sum;
  static char * end;
  sum = 0;
  end = data + length;

  do
  {
      sum -= *data++;
  } while (data != end);
  return sum;
}

#endif

#ifdef TFLMC_XCORE_PROFILE
int op_times[OP_LAST];
int op_counts[OP_LAST];
int64_t op_times_summed;
int time_t0, time_t1;
#endif

TfLiteContext ctx{};

TFLMRegistration registrations[OP_LAST];

struct {
const TfArray<4, int> tensor_dimension0 = { 4, { 1,1,64,1 } };
const TfArray<1, float> quant0_scale = { 1, { 0.033548012375831604, } };
const TfArray<1, int> quant0_zero = { 1, { -128 } };
const TfLiteAffineQuantization quant0 = { (TfLiteFloatArray*)&quant0_scale, (TfLiteIntArray*)&quant0_zero, 0 };
const TfArray<2, int> tensor_dimension1 = { 2, { 1,64 } };
const TfArray<1, float> quant1_scale = { 1, { 0.0078407786786556244, } };
const TfArray<1, int> quant1_zero = { 1, { -1 } };
const TfLiteAffineQuantization quant1 = { (TfLiteFloatArray*)&quant1_scale, (TfLiteIntArray*)&quant1_zero, 0 };
const ALIGN(8) int32_t tensor_data2[3] = { 
    1, 0, 2, 
};
const TfArray<1, int> tensor_dimension2 = { 1, { 3 } };
const int32_t tensor_data3[1] = { -1 };
const int tensor_dimension3 = 0; /* empty TfLiteIntArray */
const ALIGN(8) int32_t tensor_data4[3] = { 
    64, 64, -1, 
};
const ALIGN(8) int32_t tensor_data5[4] = { 
    0, 0, 0, 0, 
};
const TfArray<1, int> tensor_dimension5 = { 1, { 4 } };
const ALIGN(8) int32_t tensor_data6[4] = { 
    0, 0, -1, 32, 
};
const ALIGN(8) int32_t tensor_data7[4] = { 
    1, 1, 1, 1, 
};
const ALIGN(8) int32_t tensor_data8[4] = { 
    0, 0, 1, 0, 
};
const ALIGN(8) int32_t tensor_data9[4] = { 
    0, 0, -2, 32, 
};
const ALIGN(8) int32_t tensor_data10[4] = { 
    0, 0, -2, 1, 
};
const ALIGN(8) int8_t tensor_data11[256] = { 
    115, 116, 117, 117, 118, 119, 119, 120, 121, 121, 
    122, 122, 123, 123, 123, 124, 124, 124, 125, 125, 
    125, 125, 125, 126, 126, 126, 126, 126, 126, 126, 
    127, 127, 127, 127, 127, 127, 127, 127, 127, 127, 
    127, 127, 127, 127, 127, 127, 127, 127, 127, 127, 
    127, 127, 127, 127, 127, 127, 127, 127, 127, 127, 
    127, 127, 127, 127, 127, 127, 127, 127, 127, 127, 
    127, 127, 127, 127, 127, 127, 127, 127, 127, 127, 
    127, 127, 127, 127, 127, 127, 127, 127, 127, 127, 
    127, 127, 127, 127, 127, 127, 127, 127, 127, 127, 
    127, 127, 127, 127, 127, 127, 127, 127, 127, 127, 
    127, 127, 127, 127, 127, 127, 127, 127, 127, 127, 
    127, 127, 127, 127, 127, 127, 127, 127, -128, -128, 
    -128, -128, -128, -128, -128, -128, -128, -127, -127, -127, 
    -127, -127, -127, -127, -127, -127, -127, -127, -127, -127, 
    -127, -126, -126, -126, -126, -126, -126, -126, -125, -125, 
    -125, -125, -125, -124, -124, -124, -123, -123, -123, -122, 
    -122, -121, -121, -120, -119, -119, -118, -117, -117, -116, 
    -115, -114, -113, -112, -110, -109, -108, -106, -105, -103, 
    -101, -99, -97, -95, -93, -90, -88, -85, -82, -80, 
    -76, -73, -70, -66, -63, -59, -55, -51, -47, -42, 
    -38, -33, -29, -24, -19, -15, -10, -5, 0, 5, 
    10, 15, 19, 24, 29, 33, 38, 42, 47, 51, 
    55, 59, 63, 66, 70, 73, 76, 80, 82, 85, 
    88, 90, 93, 95, 97, 99, 101, 103, 105, 106, 
    108, 109, 110, 112, 113, 114, 
};
const TfArray<1, int> tensor_dimension11 = { 1, { 256 } };
const ALIGN(8) int8_t tensor_data12[256] = { 
    110, 111, 112, 112, 113, 114, 114, 115, 115, 116, 
    116, 117, 117, 118, 118, 119, 119, 119, 120, 120, 
    121, 121, 121, 121, 122, 122, 122, 123, 123, 123, 
    123, 123, 124, 124, 124, 124, 124, 125, 125, 125, 
    125, 125, 125, 125, 125, 126, 126, 126, 126, 126, 
    126, 126, 126, 126, 126, 126, 127, 127, 127, 127, 
    127, 127, 127, 127, 127, 127, 127, 127, 127, 127, 
    127, 127, 127, 127, 127, 127, 127, 127, 127, 127, 
    127, 127, 127, 127, 127, 127, 127, 127, 127, 127, 
    127, 127, 127, 127, 127, 127, 127, 127, 127, 127, 
    127, 127, 127, 127, 127, 127, 127, 127, 127, 127, 
    127, 127, 127, 127, 127, 127, 127, 127, 127, 127, 
    127, 127, 127, 127, 127, 127, 127, 127, -119, -119, 
    -118, -118, -117, -117, -116, -116, -115, -115, -114, -114, 
    -113, -112, -112, -111, -110, -109, -108, -108, -107, -106, 
    -105, -104, -103, -102, -101, -99, -98, -97, -96, -94, 
    -93, -92, -90, -89, -87, -86, -84, -82, -80, -79, 
    -77, -75, -73, -71, -69, -67, -64, -62, -60, -58, 
    -55, -53, -50, -48, -45, -43, -40, -37, -35, -32, 
    -29, -26, -23, -21, -18, -15, -12, -9, -6, -3, 
    0, 3, 6, 9, 12, 15, 18, 21, 23, 26, 
    29, 32, 35, 37, 40, 43, 45, 48, 50, 53, 
    55, 58, 60, 62, 64, 67, 69, 71, 73, 75, 
    77, 79, 80, 82, 84, 86, 87, 89, 90, 92, 
    93, 94, 96, 97, 98, 99, 101, 102, 103, 104, 
    105, 106, 107, 108, 108, 109, 
};
const ALIGN(8) int8_t tensor_data13[256] = { 
    26, 31, 36, 41, 46, 50, 54, 59, 63, 67, 
    70, 74, 78, 81, 84, 87, 90, 92, 95, 97, 
    99, 101, 103, 105, 107, 108, 110, 111, 112, 113, 
    115, 116, 116, 117, 118, 119, 120, 120, 121, 121, 
    122, 122, 123, 123, 124, 124, 124, 125, 125, 125, 
    125, 126, 126, 126, 126, 126, 126, 126, 127, 127, 
    127, 127, 127, 127, 127, 127, 127, 127, 127, 127, 
    127, 127, 127, 127, 127, 127, 127, 127, 127, 127, 
    127, 127, 127, 127, 127, 127, 127, 127, 127, 127, 
    127, 127, 127, 127, 127, 127, 127, 127, 127, 127, 
    127, 127, 127, 127, 127, 127, 127, 127, 127, 127, 
    127, 127, 127, 127, 127, 127, 127, 127, 127, 127, 
    127, 127, 127, 127, 127, 127, 127, 127, -128, -128, 
    -128, -128, -128, -128, -128, -128, -128, -128, -128, -128, 
    -128, -128, -128, -128, -128, -128, -128, -128, -128, -128, 
    -128, -128, -128, -128, -128, -128, -128, -128, -128, -128, 
    -128, -128, -128, -128, -128, -128, -128, -128, -128, -128, 
    -128, -128, -128, -128, -128, -128, -127, -127, -127, -127, 
    -127, -127, -127, -127, -127, -127, -127, -127, -127, -126, 
    -126, -126, -126, -126, -126, -126, -125, -125, -125, -125, 
    -124, -124, -124, -123, -123, -122, -122, -121, -121, -120, 
    -120, -119, -118, -117, -116, -116, -115, -113, -112, -111, 
    -110, -108, -107, -105, -103, -101, -99, -97, -95, -92, 
    -90, -87, -84, -81, -78, -74, -70, -67, -63, -59, 
    -54, -50, -46, -41, -36, -31, -26, -21, -16, -11, 
    -5, 0, 5, 11, 16, 21, 
};
const ALIGN(8) int8_t tensor_data14[256] = { 
    -99, -97, -93, -90, -86, -82, -78, -74, -69, -64, 
    -58, -53, -47, -41, -34, -28, -21, -14, -7, 0, 
    7, 14, 21, 28, 34, 41, 47, 53, 58, 64, 
    69, 74, 78, 82, 86, 90, 93, 97, 99, 102, 
    105, 107, 109, 111, 112, 114, 115, 117, 118, 119, 
    120, 120, 121, 122, 123, 123, 124, 124, 124, 125, 
    125, 125, 126, 126, 126, 126, 127, 127, 127, 127, 
    127, 127, 127, 127, 127, 127, 127, 127, 127, 127, 
    127, 127, 127, 127, 127, 127, 127, 127, 127, 127, 
    127, 127, 127, 127, 127, 127, 127, 127, 127, 127, 
    127, 127, 127, 127, 127, 127, 127, 127, 127, 127, 
    127, 127, 127, 127, 127, 127, 127, 127, 127, 127, 
    127, 127, 127, 127, 127, 127, 127, 127, -128, -128, 
    -128, -128, -128, -128, -128, -128, -128, -128, -128, -128, 
    -128, -128, -128, -128, -128, -128, -128, -128, -128, -128, 
    -128, -128, -128, -128, -128, -128, -128, -128, -128, -128, 
    -128, -128, -128, -128, -128, -128, -128, -128, -128, -128, 
    -128, -128, -128, -128, -128, -128, -128, -128, -128, -128, 
    -128, -128, -128, -128, -128, -128, -128, -128, -128, -128, 
    -128, -128, -128, -128, -128, -128, -128, -128, -128, -128, 
    -128, -128, -128, -128, -128, -128, -128, -128, -128, -128, 
    -128, -128, -128, -128, -128, -128, -128, -128, -127, -127, 
    -127, -127, -127, -127, -127, -127, -127, -127, -127, -126, 
    -126, -126, -126, -125, -125, -125, -124, -124, -124, -123, 
    -123, -122, -121, -120, -120, -119, -118, -117, -115, -114, 
    -112, -111, -109, -107, -105, -102, 
};
const ALIGN(8) int8_t tensor_data15[832] = { 
    95, 0, 0, 0, -67, 0, 0, 0, -112, 0, 
    0, 0, 75, 0, 0, 0, 127, 0, 0, 0, 
    -11, 0, 0, 0, 9, 0, 0, 0, 69, 0, 
    0, 0, -127, 0, 0, 0, 57, 0, 0, 0, 
    -11, 0, 0, 0, -23, 0, 0, 0, 127, 0, 
    0, 0, 1, 0, 0, 0, -108, 0, 0, 0, 
    81, 0, 0, 0, 127, 0, 0, 0, 117, 0, 
    0, 0, 101, 0, 0, 0, -29, 0, 0, 0, 
    20, 0, 0, 0, 9, 0, 0, 0, -105, 0, 
    0, 0, -50, 0, 0, 0, -127, 0, 0, 0, 
    -8, 0, 0, 0, -33, 0, 0, 0, 37, 0, 
    0, 0, -127, 0, 0, 0, 115, 0, 0, 0, 
    21, 0, 0, 0, -16, 0, 0, 0, -69, 0, 
    0, 0, 48, 0, 0, 0, 127, 0, 0, 0, 
    35, 0, 0, 0, -127, 0, 0, 0, 55, 0, 
    0, 0, -92, 0, 0, 0, 4, 0, 0, 0, 
    -121, 0, 0, 0, 88, 0, 0, 0, 127, 0, 
    0, 0, -105, 0, 0, 0, -120, 0, 0, 0, 
    75, 0, 0, 0, 93, 0, 0, 0, 73, 0, 
    0, 0, 64, 0, 0, 0, -127, 0, 0, 0, 
    26, 0, 0, 0, -45, 0, 0, 0, -19, 0, 
    0, 0, 127, 0, 0, 0, -60, 0, 0, 0, 
    -127, 0, 0, 0, 76, 0, 0, 0, 79, 0, 
    0, 0, 113, 0, 0, 0, 18, 0, 0, 0, 
    127, 0, 0, 0, -40, 0, 0, 0, -33, 0, 
    0, 0, -108, 0, 0, 0, -105, 0, 0, 0, 
    -24, 0, 0, 0, -56, 0, 0, 0, -38, 0, 
    0, 0, -26, 0, 0, 0, 127, 0, 0, 0, 
    36, 0, 0, 0, -53, 0, 0, 0, 10, 0, 
    0, 0, 127, 0, 0, 0, -62, 0, 0, 0, 
    92, 0, 0, 0, -127, 0, 0, 0, -75, 0, 
    0, 0, 101, 0, 0, 0, 8, 0, 0, 0, 
    79, 0, 0, 0, 89, 0, 0, 0, -65, 0, 
    0, 0, -127, 0, 0, 0, 79, 0, 0, 0, 
    -111, 0, 0, 0, -47, 0, 0, 0, 127, 0, 
    0, 0, 80, 0, 0, 0, 103, 0, 0, 0, 
    -127, 0, 0, 0, 19, 0, 0, 0, -51, 0, 
    0, 0, 7, 0, 0, 0, 13, 0, 0, 0, 
    -23, 0, 0, 0, 45, 0, 0, 0, -29, 0, 
    0, 0, 127, 0, 0, 0, -8, 0, 0, 0, 
    18, 0, 0, 0, -53, 0, 0, 0, 21, 0, 
    0, 0, 117, 0, 0, 0, -127, 0, 0, 0, 
    113, 0, 0, 0, -127, 0, 0, 0, -49, 0, 
    0, 0, -88, 0, 0, 0, 0, 0, 0, 0, 
    -35, 0, 0, 0, 36, 0, 0, 0, -25, 0, 
    0, 0, -127, 0, 0, 0, -29, 0, 0, 0, 
    113, 0, 0, 0, -3, 0, 0, 0, 18, 0, 
    0, 0, -2, 0, 0, 0, -127, 0, 0, 0, 
    -17, 0, 0, 0, 18, 0, 0, 0, 33, 0, 
    0, 0, 29, 0, 0, 0, 127, 0, 0, 0, 
    127, 0, 0, 0, -31, 0, 0, 0, 65, 0, 
    0, 0, -69, 0, 0, 0, 14, 0, 0, 0, 
    63, 0, 0, 0, -67, 0, 0, 0, -50, 0, 
    0, 0, -127, 0, 0, 0, -87, 0, 0, 0, 
    -56, 0, 0, 0, -53, 0, 0, 0, -18, 0, 
    0, 0, 127, 0, 0, 0, -25, 0, 0, 0, 
    -105, 0, 0, 0, 11, 0, 0, 0, -19, 0, 
    0, 0, -22, 0, 0, 0, 127, 0, 0, 0, 
    39, 0, 0, 0, -4, 0, 0, 0, -127, 0, 
    0, 0, -109, 0, 0, 0, 102, 0, 0, 0, 
    -112, 0, 0, 0, 127, 0, 0, 0, 59, 0, 
    0, 0, 110, 0, 0, 0, -61, 0, 0, 0, 
    -94, 0, 0, 0, -127, 0, 0, 0, -82, 0, 
    0, 0, -8, 0, 0, 0, 81, 0, 0, 0, 
    0, 0, 0, 0, 0, 0, 0, 0, 0, 0, 
    0, 0, 0, 0, 0, 0, 0, 0, 0, 0, 
    0, 0, 0, 0, 0, 0, 0, 0, 0, 0, 
    0, 0, 0, 0, 0, 0, 0, 0, 0, 0, 
    0, 0, 0, 0, 0, 0, 0, 0, 0, 0, 
    0, 0, 0, 0, 0, 0, 0, 0, 0, 0, 
    0, 0, 0, 0, 0, 0, 0, 0, 0, 0, 
    0, 0, 0, 0, 0, 0, 0, 0, 0, 0, 
    0, 0, 0, 0, 0, 0, 0, 0, 0, 0, 
    0, 0, 0, 0, 0, 0, 0, 0, 0, 0, 
    0, 0, 0, 0, 0, 0, 0, 0, 0, 0, 
    0, 0, 0, 0, 0, 0, 0, 0, 0, 0, 
    0, 0, 0, 0, 0, 0, 0, 0, 0, 0, 
    0, 0, 0, 0, 0, 0, 0, 0, 0, 0, 
    0, 0, 0, 0, 0, 0, 0, 0, 0, 0, 
    0, 0, 0, 0, 0, 0, 0, 0, 0, 0, 
    0, 0, 0, 0, 0, 0, 0, 0, 0, 0, 
    0, 0, 0, 0, 0, 0, 0, 0, 0, 0, 
    0, 0, 0, 0, 0, 0, 0, 0, 0, 0, 
    0, 0, 
};
const TfArray<1, int> tensor_dimension15 = { 1, { 832 } };
const ALIGN(8) int16_t tensor_data16[64] = { 
    17972, 18333, 17544, 7829, 7341, 26839, 7020, 9437, 10341, 10814, 
    25394, 5633, 3667, 20580, 31592, 9985, -8053, -6899, -8551, -9963, 
    -6920, -7363, -6488, -9678, -9996, -6622, -8457, -10019, -6303, -8518, 
    -7974, -6705, 5781, 8877, 10603, 18556, 21195, 5302, 11915, 7035, 
    16806, 7902, 8421, 23935, 11560, 9445, 7664, 14177, -9990, -6703, 
    -9670, -8283, -8707, -9984, -6660, -6557, -8229, -10071, -10084, -9031, 
    -6538, -9911, -6720, -7111, 
};
const TfArray<1, int> tensor_dimension16 = { 1, { 64 } };
const ALIGN(8) int8_t tensor_data17[3072] = { 
    -49, -45, -54, -27, -46, -12, -90, -70, 92, 12, 
    0, -5, -51, -31, -75, -49, -39, -31, -31, 30, 
    10, 85, -68, -51, -71, 59, -17, -3, -8, 71, 
    -4, -9, -8, -125, 28, -90, -39, -14, -61, -5, 
    -18, 100, 87, 7, 27, 114, -1, 103, 21, -79, 
    42, -15, -59, 70, 83, 61, -31, 68, 73, -4, 
    38, 31, 65, -68, -8, 49, -74, -63, 53, -92, 
    -21, 27, -38, -23, -79, -36, 31, -5, -38, 14, 
    -72, -66, 48, -31, -96, 58, -13, 64, -35, 0, 
    -9, -37, -73, 39, 11, 46, 14, 63, 81, -38, 
    31, 102, 12, -49, 35, 113, 10, 46, -58, 19, 
    -41, -4, -14, -10, 29, 81, 25, -38, -69, 98, 
    -83, 58, -108, 51, -2, 29, 79, 78, -89, 45, 
    75, -9, -11, -2, 39, 113, -38, -14, 93, 24, 
    -2, 47, 52, -67, -29, -64, 66, 50, -35, -47, 
    61, -38, -26, -47, -63, 30, 54, -1, -55, -64, 
    -29, 3, 45, -71, -45, 20, 16, -40, -34, 37, 
    86, 29, 19, -22, 44, -57, -64, -8, -31, 17, 
    -22, -69, 33, -57, 49, 47, -70, 9, -4, 7, 
    -3, -43, -50, 43, 5, -27, -54, 13, 25, 53, 
    71, -81, 19, 37, 62, 40, -127, -25, -2, -63, 
    30, -8, 39, -72, -10, 43, 54, -78, -50, 55, 
    -54, 60, -48, 73, -47, -33, -119, 90, -32, 78, 
    51, 51, -95, -10, -42, -42, 20, 109, 18, 12, 
    26, 103, -100, -30, 28, -43, -34, -28, 105, -59, 
    -95, 15, -20, -127, -21, 88, 67, 12, -25, -6, 
    11, 87, 92, -18, 27, -19, -79, 25, 75, -68, 
    -64, 81, -106, 43, -86, 75, -89, -68, 35, -17, 
    127, -47, 39, -42, -8, -102, -61, 47, 4, -64, 
    58, 22, 19, -60, -73, -25, -27, -24, -64, -37, 
    -68, 63, -72, -5, -14, 74, 59, -24, -66, 17, 
    -13, -1, 49, -35, -80, 9, -28, 20, 68, -10, 
    -70, -21, -70, -43, 55, 119, 37, 29, 62, -99, 
    55, 80, -29, -40, -6, -47, 96, -22, -57, 18, 
    -71, 22, 3, -37, -91, 102, -58, -53, -49, 42, 
    41, -95, 36, -44, 36, 20, -25, 59, 39, -35, 
    -56, 23, 20, 46, 70, 66, 7, 33, 79, 46, 
    -38, -6, 62, 55, -30, 4, 38, 63, 73, 37, 
    -12, 25, 52, 18, 51, -84, -35, 68, 5, 2, 
    57, 30, -4, 22, -79, -14, 50, -3, 16, 32, 
    41, -60, -12, 54, -82, 79, 66, -15, -45, 34, 
    90, -88, -55, 76, 19, 17, -4, -54, -11, 21, 
    -14, -22, -49, -63, 18, -51, -50, -50, -42, -48, 
    -74, -77, -66, -38, -13, -74, -87, 4, -15, 59, 
    -7, -46, -60, -103, -6, 65, 57, -78, 3, 64, 
    57, -12, -48, -26, 29, -92, -47, -45, -58, -21, 
    45, -127, -21, -10, 6, -100, 118, 2, -57, -57, 
    -25, -28, -63, -43, 16, -115, -98, -7, -89, -48, 
    51, 12, 32, 10, -59, -114, -72, -109, 48, 5, 
    9, -51, 5, 11, 22, -2, -27, 48, 99, 28, 
    -52, 9, -52, -6, -48, 36, -62, -96, -80, -28, 
    14, 49, -32, -20, 18, 66, 34, 11, 85, -59, 
    41, -7, 127, -44, -25, -43, -37, 69, 84, 25, 
    20, -1, -51, 20, -17, 23, -73, -33, 15, 22, 
    66, -10, -53, -4, 10, 43, -70, 8, 127, -13, 
    87, 9, 113, 59, 45, -2, 9, 126, -30, 48, 
    -63, 73, 6, -84, 77, -37, -101, 59, 53, -33, 
    13, -31, 22, -42, 86, 43, 13, -45, -59, 39, 
    -89, -54, -56, -63, -33, 47, -23, -64, 15, -41, 
    -43, 47, 66, -7, 10, -64, -127, 81, 21, -44, 
    29, -13, 59, 47, 41, -4, -32, 13, 10, 49, 
    -54, -59, 17, -69, -21, 55, -29, -10, 4, 32, 
    79, 44, 46, -127, -102, 67, 15, -33, 12, -97, 
    73, 69, 62, 77, 43, -92, -94, -24, -100, 69, 
    82, -56, -71, 125, 3, 50, 88, -47, 107, 38, 
    48, 39, 1, 13, 53, 85, 16, -7, -35, -62, 
    -32, 85, -47, 45, -51, 12, 94, 63, -42, 54, 
    -75, -56, -49, -43, -84, 5, -38, -45, -7, -57, 
    17, -16, -51, 49, -45, 42, -43, 24, -4, 51, 
    -34, 5, -13, 44, -30, 65, 12, 9, 43, 19, 
    -53, -69, -20, 31, -19, 66, 54, -8, 20, 45, 
    -89, -13, -55, 50, 71, -59, 63, -5, 12, -15, 
    37, -40, -10, -68, -7, 9, 57, 73, -93, -78, 
    -39, 78, -29, -44, 72, -67, 117, -76, -71, 102, 
    -111, -2, 67, -83, -33, 32, -17, 27, -41, -97, 
    61, 15, 66, -37, 19, -10, -14, -3, 55, -74, 
    102, 51, 100, -92, -32, -80, -38, 51, -95, 15, 
    44, 0, -55, 37, -31, 65, 62, -83, -86, -25, 
    -41, 11, -40, -2, 25, -19, 9, -86, 36, 69, 
    -7, -25, 30, 62, 51, 63, 92, 11, -82, 20, 
    106, -47, 103, 19, -10, 112, -9, -62, 25, 104, 
    -60, 5, -9, 76, 99, 90, 91, -78, 80, 36, 
    107, -75, -33, 81, 46, 40, -46, 39, 39, 26, 
    42, 8, 39, 77, -33, -18, 96, 101, 51, 48, 
    -83, -92, 120, -31, -36, 73, -39, -57, -41, 54, 
    -43, 102, 81, 81, -89, 21, 107, 7, -7, -21, 
    62, -58, -97, -75, 74, -17, 104, -28, 63, -31, 
    -5, 36, 43, -85, 29, 2, -44, -20, -29, 65, 
    83, -44, 17, 29, 127, -63, 48, -24, -37, -30, 
    -30, 18, -1, -57, -36, -44, 60, 15, 123, 56, 
    -84, -45, -59, -7, 13, 63, -30, -11, -65, -25, 
    -12, 0, -42, 55, 86, -21, 56, -41, -42, -28, 
    -52, 14, 97, 23, 66, -64, 46, 39, -41, -59, 
    -17, -21, 41, 26, 44, -18, -47, -19, -37, 18, 
    70, -32, -8, -5, -9, 77, 63, -1, -74, 15, 
    -29, -45, -20, 19, 75, -33, -1, -32, -39, 95, 
    31, -76, -3, 39, -25, -60, -59, -67, -62, 102, 
    -36, -108, -43, 47, 13, 5, -19, 16, -39, -31, 
    -80, -80, 30, 83, -48, -56, -7, 60, -17, 52, 
    106, 67, -59, 71, -50, -127, -38, -12, -61, 14, 
    -88, -76, 12, 0, 71, -15, 6, -48, -51, 51, 
    -61, 12, 10, 2, -26, -5, -34, 2, -64, -26, 
    70, 14, 71, -101, 1, 38, -19, -36, 59, 85, 
    -18, 61, -35, 6, 3, -72, 22, 43, -54, -61, 
    58, 58, 28, 1, 127, 51, 54, 31, -42, -8, 
    -73, 34, -38, 9, -14, 12, 106, 73, 56, -22, 
    -16, 65, 47, 20, 44, 43, -43, -41, 84, -51, 
    -16, 106, -82, -66, -79, 121, -27, 24, -19, 29, 
    -98, 67, -14, 84, 107, 62, 121, -27, 7, 18, 
    -4, -53, 35, -21, -9, -87, -12, -2, -31, -2, 
    1, -13, -43, 74, 19, 31, 43, 42, 66, -54, 
    -22, 28, -75, -20, -47, 24, 29, -31, -43, 3, 
    58, -8, -22, 98, 8, 46, -74, -81, -17, -33, 
    -46, -20, -27, 7, -77, -11, 65, 6, 60, 48, 
    -54, 22, -40, -27, -47, -38, 57, -15, -4, 30, 
    -26, -55, -41, 38, 18, 50, -15, -34, 30, 35, 
    -54, 25, -35, 66, -3, -31, -11, 46, 69, 17, 
    -4, 20, 51, 90, -7, -87, -19, -61, 71, 127, 
    16, -33, -33, -82, -51, 23, -86, -10, 32, -9, 
    -43, -50, 37, 54, -47, -34, 68, -20, -52, 41, 
    2, -29, -23, -54, -127, -30, 12, 68, 38, 7, 
    25, -13, 59, -54, 30, -85, 66, 6, -41, 22, 
    112, -11, -18, 63, -34, 96, -32, -37, 56, 61, 
    56, 12, 62, 79, 10, 57, -55, -66, -1, 1, 
    -115, 4, -59, -73, 75, 51, 37, -46, 92, -1, 
    27, 62, -87, 85, 22, 32, 67, -4, -11, 54, 
    -107, -54, 15, -33, 25, -112, -17, 91, -30, 8, 
    -2, 65, -29, -71, 113, -62, 35, -79, -3, 117, 
    8, -75, 28, 57, -58, 66, 32, 57, 52, 9, 
    7, 87, -32, 36, 63, -26, 70, -22, 58, -74, 
    27, -32, 28, -24, 85, 11, 23, 55, -16, 53, 
    28, 18, -46, 21, -58, 48, 8, -88, 79, -23, 
    -23, -29, -29, 31, -5, 48, 40, -48, -9, -1, 
    -14, -127, -56, 53, 35, 16, -89, 12, -85, 19, 
    -103, 31, 54, -22, 13, -64, 27, -100, 80, 95, 
    7, -46, -70, -43, -78, -87, -34, -79, -73, -51, 
    75, 127, -17, 117, 51, 60, -39, -72, -66, -79, 
    -61, -51, 45, 25, 107, -19, 46, -24, 64, -88, 
    -55, -20, -26, -82, -16, -19, -55, 28, -44, -29, 
    -46, 1, -45, -89, 28, 11, -46, 18, -3, 56, 
    -32, -67, -27, -17, -9, 6, -33, 65, -62, -55, 
    57, 85, 81, 56, -77, 79, 18, 84, -27, 44, 
    62, 34, -83, 46, -50, 48, -8, 127, 12, 82, 
    14, -22, -98, 40, -40, -49, -43, -28, 103, -19, 
    -37, -1, -33, -9, 3, 30, -1, 51, 73, -19, 
    -52, 22, 0, -87, -72, 26, 0, -19, 33, -68, 
    -127, 57, 0, 72, -19, 65, 2, -92, -19, 8, 
    -41, -25, 6, 95, -8, -19, 101, 62, 49, -38, 
    -25, 61, -4, 1, 40, -24, -68, -77, -67, 85, 
    41, 76, 89, -87, -69, -91, -56, -20, -117, 29, 
    -14, -12, 120, -78, 117, 23, -59, 41, 28, -32, 
    53, -40, 2, -49, 45, -18, 30, 1, 37, 3, 
    -107, 12, -6, -69, -61, 66, -47, 4, 7, 1, 
    39, -81, -69, 47, 66, 85, -16, -16, -78, 31, 
    12, 30, 16, 40, -8, -40, -5, -4, 69, -100, 
    -34, -33, -23, -78, 20, 38, 17, 40, 18, -68, 
    -48, -21, -43, -6, -63, -64, 70, 58, -33, -37, 
    -36, 27, 19, -34, 35, 109, -25, 33, 15, 79, 
    -43, 116, 75, -67, -50, -87, 57, -77, -70, 18, 
    15, -66, -5, 72, -64, 47, -2, 99, 6, -56, 
    -56, -117, 108, -91, -47, 2, -65, -89, 102, -28, 
    -16, 110, -98, 67, -50, 49, -106, -122, 36, 42, 
    -66, 10, -56, 56, 49, -65, 49, -60, 49, 19, 
    -16, -108, 16, 64, -59, 83, 70, -29, 31, 87, 
    46, -15, -61, -22, -59, -88, 29, 35, 16, 35, 
    32, -2, 63, 8, -67, -60, -72, -71, 73, -77, 
    31, 72, -71, -36, -75, -33, 54, -74, -34, 97, 
    -122, -16, -5, 115, -10, -23, -94, -20, -75, 32, 
    -102, -4, -127, -9, -55, -27, -100, -77, -79, -33, 
    -40, -42, 95, -16, 47, 5, 33, 3, -7, -22, 
    76, -46, -6, -10, 24, -12, -23, 41, -62, -108, 
    -77, 49, 71, 11, 20, -37, 29, -52, -21, -66, 
    -58, -58, 32, -73, -51, 50, 51, 20, 49, 88, 
    -51, -26, 64, 0, -43, -41, -50, 26, 45, 43, 
    -1, -24, 78, 20, -25, 46, 82, 33, 74, 58, 
    -12, 69, -32, -9, 62, -30, 19, 75, 27, 11, 
    6, -14, 9, 32, 19, 1, -72, -28, 18, -9, 
    75, -82, -18, 63, 127, 63, -53, -39, 39, 37, 
    -72, -61, -51, 75, 5, -11, 62, -84, -38, -41, 
    -4, 47, 40, 53, 6, -53, -28, 31, -60, -69, 
    0, 74, -35, -100, 90, -21, 60, -19, 11, 56, 
    -3, 43, 58, -106, 43, 51, 92, 49, 80, 35, 
    50, 61, 16, -3, 40, 127, 19, 2, 66, 74, 
    -27, 81, -39, -88, -14, 34, 113, 51, 90, -23, 
    20, -60, 1, -50, -46, 42, 32, -35, 116, -67, 
    64, 85, 80, 41, 88, 41, 108, 11, -1, 35, 
    78, -36, 82, -28, 12, -6, -61, 7, -40, 77, 
    127, -73, -48, 88, -82, 6, 20, 20, -74, 80, 
    -49, 2, -69, 21, 71, -33, 5, 49, 4, 88, 
    58, -50, 66, 13, 20, -66, -27, 17, 9, -34, 
    71, -1, -78, -18, 49, -4, 30, 16, 62, -60, 
    -49, 47, -56, -78, 29, -85, 63, 49, 0, -80, 
    17, 31, 29, 52, -91, -74, -45, 30, 74, -21, 
    -42, 73, -70, -87, -25, -58, -7, -120, -28, 39, 
    -59, 2, 0, -17, 51, 5, -28, 10, -27, 5, 
    -59, -25, -32, 56, 55, -115, -34, 53, -52, -26, 
    37, 8, -46, -20, 72, 25, -46, 67, -107, 47, 
    -55, 69, 81, -71, 61, -61, 29, -2, -56, 4, 
    12, -42, 67, 48, 66, 0, -20, 95, -8, 127, 
    -27, -21, 8, -14, -6, 77, -87, -73, 41, -78, 
    40, 73, 30, -31, 59, -18, 13, 79, -121, 52, 
    47, -9, -63, -41, 31, -32, 31, -15, 35, -3, 
    -6, 22, 24, 53, -78, 24, 58, 77, 37, 15, 
    93, 77, -1, 118, 43, -74, 24, 44, -26, 103, 
    -54, -84, 73, 30, 127, -68, 53, 44, -5, -18, 
    34, -62, 25, -29, -58, -46, 79, 97, 90, 32, 
    9, 56, 11, 127, 1, 17, 58, 100, 17, 68, 
    49, 1, -53, 6, 34, -46, 72, 9, 26, -59, 
    78, -74, 11, 36, -84, -58, -89, 10, 6, -95, 
    -17, -32, -115, -27, -18, -94, 66, -60, 103, 5, 
    -20, 28, 63, 12, 34, 70, -10, -46, -11, -76, 
    -121, 98, -92, 86, -93, 114, 47, -126, -127, 37, 
    5, -86, -51, -9, 7, 83, -37, -29, -5, 47, 
    105, -28, -22, 85, 19, -1, -79, 16, 58, 55, 
    -69, 43, -55, -3, -84, 66, -82, 30, 90, -67, 
    97, 106, -87, -95, -112, 41, -21, 116, -109, -41, 
    78, 10, 17, -127, -50, -21, 13, -78, 68, -75, 
    75, 89, 19, -26, -96, 48, 72, -73, 88, 67, 
    -12, 72, 7, -64, -51, 26, -7, -40, 20, 71, 
    121, 75, -23, -43, 94, 33, -89, 59, 44, 82, 
    28, -26, 91, -40, -58, -33, -52, 34, -16, -78, 
    38, 25, -79, -47, -56, -80, 40, 31, -3, -60, 
    1, -100, -111, -40, 69, 15, -100, 37, -85, -69, 
    -8, -23, -64, -81, 2, -100, -20, -76, 90, 65, 
    67, -21, 61, -64, 44, 11, 23, 38, -51, 15, 
    -60, 66, 36, 53, -44, 51, 20, -38, -46, -4, 
    54, 18, -11, -14, -13, 13, 17, 86, 54, -6, 
    -48, 75, 63, -78, 28, -83, -49, -10, 51, -43, 
    61, 41, 21, 34, 19, 6, 1, -18, -7, 17, 
    -64, -11, 46, -66, 1, 53, 10, -99, 47, 84, 
    33, -12, -48, -8, -23, 4, -37, -91, 49, -52, 
    -62, -127, -96, 106, 62, -67, -12, -12, -26, 109, 
    -62, 32, -90, -1, 5, -73, 41, 56, 9, -2, 
    -29, 7, 75, -39, -15, 93, -21, 16, 44, 63, 
    -16, -39, -19, -39, 68, -93, 33, 72, 51, -66, 
    -9, 76, -3, -46, -57, -30, 90, -47, 73, -90, 
    85, -66, -82, -57, 63, 95, -77, 117, 10, -88, 
    -16, 88, -22, -34, 35, 27, -38, 69, 0, 63, 
    -53, -79, -87, -51, 56, 69, -4, 35, -81, 35, 
    -54, 12, 75, -53, 40, -7, -41, -44, 56, 64, 
    -34, 42, 33, -47, -62, 23, 31, -95, 39, 10, 
    -67, -68, -7, -70, -127, -56, 66, 3, 11, -2, 
    21, 32, 91, -30, 6, -68, 6, -59, -53, 42, 
    72, -62, -71, -37, 66, -76, -25, -72, 14, -73, 
    36, 4, 18, 37, 57, 26, 5, -73, 62, -64, 
    36, -54, -30, -27, -15, -6, -64, -56, -52, -127, 
    28, -23, -86, -64, 55, -78, -51, -62, -17, 10, 
    -38, 101, -5, -75, -40, 14, 61, 83, -30, -80, 
    -29, -76, -29, 59, -127, 34, -7, -73, 18, 48, 
    33, -20, -28, -68, 51, 15, -16, -80, 101, -88, 
    82, -58, -12, 66, -78, -88, 62, 87, -38, -26, 
    39, 77, 23, 60, 0, 95, -56, 5, -9, -89, 
    24, -18, -22, -66, 34, -20, 77, 26, -53, 5, 
    -26, -14, 46, -66, 67, -74, 4, -67, 43, -22, 
    -8, 95, 56, -2, 12, 73, -64, 98, -32, -49, 
    34, 87, 94, -32, -24, -51, -54, 5, -85, -3, 
    -25, 25, -26, -71, 49, 14, -35, 11, -42, -37, 
    24, -30, -16, 69, 65, 9, 75, 31, -68, -17, 
    93, 73, 81, 89, 16, -10, 10, 40, -34, -19, 
    117, -28, -48, -85, -31, -72, -34, -16, -40, -127, 
    -19, -121, 36, 13, 34, -60, -28, 37, 52, -49, 
    28, 54, 13, 49, -88, 32, 14, -27, -31, -74, 
    -22, -51, 73, -122, -41, -4, -80, 68, 68, 76, 
    123, -92, -71, -81, -109, 124, 55, 43, -116, -2, 
    101, -114, -19, -115, -11, 38, 2, -106, 127, 66, 
    -14, -78, -106, 122, 42, -47, -90, -14, 32, -56, 
    -1, -79, -106, 34, -74, 47, -35, 12, -9, -17, 
    19, 33, 0, -9, 7, -85, 28, -61, 94, -48, 
    -59, -20, -14, -106, -57, -23, 40, 101, 33, -5, 
    73, 50, 71, -114, 10, -27, 6, 49, 36, -11, 
    56, -93, 58, 95, 25, -35, -50, 64, 71, 24, 
    -41, 15, -64, -109, 39, -37, -41, -31, -13, 29, 
    -59, -36, -25, 76, -2, 26, -37, 11, -127, 82, 
    -51, 55, 47, -46, -82, -44, -12, -44, -112, -46, 
    -48, -73, 89, 31, 37, -10, -24, -66, -70, -82, 
    76, 77, 84, 13, 85, 3, 41, 28, -37, 43, 
    25, -45, 3, -36, -63, 127, 78, -34, 27, -72, 
    63, -10, -54, 34, 18, -63, -34, 67, 65, -29, 
    48, 73, 27, -68, 114, 61, -87, -50, 51, 76, 
    -43, -75, -22, 31, -20, 17, 75, -23, 14, 18, 
    -46, -34, -73, 0, -18, 14, -6, -42, 10, -29, 
    -66, 43, 58, -100, -27, 7, 78, 72, -51, -38, 
    73, -65, 98, 46, 11, 69, 47, -84, -47, -49, 
    -3, -50, -59, 87, -1, -37, -60, -18, -4, 23, 
    -27, -91, 31, -1, 95, -6, -28, -39, 16, -66, 
    17, 17, 28, -78, 74, -45, -10, 70, -13, -4, 
    5, -83, -43, -2, 30, -11, 19, -75, -91, -38, 
    96, -30, 41, 75, -8, 36, -70, -80, -69, 43, 
    -22, 52, -40, -23, -13, 103, 1, 53, -66, -62, 
    74, 64, 22, 88, 82, 71, -69, -24, 1, -59, 
    -14, -31, -35, 51, -70, -24, 27, 66, 61, 55, 
    -42, 8, -115, -47, 20, 28, 58, 37, 42, 9, 
    4, 67, -24, -16, -38, 48, -65, 22, 27, 12, 
    18, -8, -45, 42, 81, -28, 99, 64, -86, -6, 
    34, -9, 21, -13, 59, 20, 14, -72, 45, -40, 
    -42, 57, 13, -26, 33, 35, 43, -18, -69, -58, 
    53, 30, -36, 10, -26, 57, -78, -60, -54, -20, 
    62, -4, -26, 1, -23, -30, 10, 78, -106, 85, 
    57, 38, 11, -36, -42, 52, 53, 33, -70, -41, 
    29, -46, -45, -33, -30, -29, -109, -3, -57, -64, 
    83, 3, -27, 77, -23, -18, 63, 15, -96, -66, 
    -107, -47, 19, -123, -80, 77, 57, 47, -124, 90, 
    -30, 101, 74, -121, 54, 82, 9, 77, 29, -77, 
    87, 15, -17, 58, 6, 55, -98, 1, 63, 95, 
    12, -36, -66, -53, -72, -87, 61, 27, -18, 30, 
    1, 11, 3, 28, 49, -47, 1, 65, 12, -16, 
    65, -65, 61, 43, 26, 44, -34, -31, -89, 23, 
    21, 15, 
};
const TfArray<1, int> tensor_dimension17 = { 1, { 3072 } };
const ALIGN(8) int16_t tensor_data18[64] = { 
    8953, 7815, 14620, 9742, 17791, 13232, 12556, 11400, 8413, 9902, 
    14316, 8876, 10667, 12824, 6744, 11894, -5347, -5986, -10348, 1477, 
    512, -3179, -650, 782, -2079, -760, -7138, 970, -919, -7387, 
    2876, -2323, 9032, 10199, 10287, 6986, 10145, 13592, 12388, 4513, 
    7898, 14297, 10634, 9980, 9112, 5589, 5064, 11069, 1041, -351, 
    -3893, -6103, -2590, 1364, 1701, -1580, -2532, 6818, -9751, -3060, 
    -4953, -3989, -4453, 1730, 
};
const ALIGN(8) int8_t tensor_data19[7680] = { 
    -30, -46, 5, 56, 74, -19, 38, -26, 9, -4, 
    22, -46, -6, -28, -55, -42, -36, -62, -34, -22, 
    -69, 34, 26, -63, -14, 23, -38, 36, 11, 27, 
    -50, -52, 27, -18, -14, -38, 39, -45, 35, -36, 
    29, -17, -79, 5, -1, 50, 19, 45, -48, -44, 
    57, 36, -4, -14, 68, -62, -53, 19, 48, 11, 
    100, 15, 106, -57, 24, 10, -46, 28, -49, -114, 
    -41, 44, -38, 7, -54, 65, 36, 64, -54, 26, 
    -45, 62, 11, 19, -116, -15, -75, -81, -65, 35, 
    -20, -43, -39, -19, -28, 77, -7, 91, -58, -17, 
    -47, -16, 113, 33, -48, 65, 47, 35, 38, -16, 
    44, -54, 52, -1, 9, -54, -43, 24, -13, 75, 
    78, 45, -68, -74, 3, -29, -9, 89, 22, 14, 
    -45, -8, 39, 8, 65, -8, -41, 92, -72, -108, 
    -26, -33, 77, 20, -8, -28, -81, -27, 50, 13, 
    79, -19, 47, -17, -74, -14, -22, -99, -61, 35, 
    15, 26, -37, -32, -24, 52, -65, 47, -70, 41, 
    -13, 33, -11, -17, 25, 34, -53, 41, 38, -22, 
    -53, 1, -42, 28, 6, 7, -48, -4, -26, -11, 
    -34, -45, -56, -54, -15, 35, -1, 48, 70, -64, 
    63, -67, 18, 43, 25, -15, -47, 3, -10, 12, 
    -30, -6, 19, -39, 7, -7, -52, -59, -29, 35, 
    -16, -71, -3, 48, -42, 4, 50, -27, 8, -47, 
    32, -28, -10, -32, 15, -6, 22, -5, 46, -43, 
    -52, -46, -25, -24, 22, -23, 45, -55, -36, -35, 
    -18, -58, -66, 28, -61, -24, -57, -28, -3, -4, 
    15, 40, 28, -27, -49, -28, 19, 18, -23, -42, 
    -12, 39, -27, 23, 18, -32, -71, -25, 20, -58, 
    -36, -5, 11, -5, -47, -8, 38, 75, 6, -28, 
    -38, 41, -66, 48, -43, 57, -64, -34, -23, 35, 
    9, 7, -17, -38, 49, -6, -25, 45, -88, -1, 
    46, -28, -61, 10, -11, 13, -37, -20, 85, 59, 
    15, 1, -97, 3, 46, -3, -109, -27, -83, -6, 
    83, 69, -45, -88, -108, 6, -60, 26, 47, 39, 
    -28, -85, 12, -29, -59, -127, 61, 35, -71, -36, 
    32, -58, -43, 8, 41, 2, -5, 27, 33, 6, 
    -22, 18, -63, -38, -35, -46, 12, -27, 33, -70, 
    15, -6, 42, -29, -32, -46, -52, 7, 17, -45, 
    -29, -40, -67, 31, -26, -38, -22, 69, -73, -72, 
    -48, -86, 68, 5, -10, 102, 36, 47, 40, 40, 
    78, 22, -41, -9, -18, 26, -37, 10, -40, 8, 
    -30, 15, -24, 43, -6, -10, 11, -40, 59, 10, 
    33, 19, 41, -64, -24, -13, -22, -21, 23, -13, 
    -64, 41, -127, 25, 1, 90, -90, 25, -67, -102, 
    18, -21, -39, -8, 8, 6, 46, -20, -5, 69, 
    -26, 15, -7, 25, -31, -42, 49, 48, 31, -92, 
    16, -1, -46, -18, 5, -74, 45, -4, 100, -57, 
    -85, 50, 18, -86, 68, -40, 58, -9, 76, 70, 
    9, 1, 12, -54, -92, 12, 13, 30, 32, 52, 
    60, -25, -45, 33, 40, -17, 98, -19, 6, -71, 
    32, 55, 127, 70, 4, 5, 11, -30, -22, -19, 
    -65, 70, -33, 27, 60, -40, -56, -46, 37, -10, 
    7, -47, -7, 10, 19, 51, -60, 20, -70, -3, 
    47, 35, -8, 27, -27, -45, -38, 39, 17, 15, 
    44, -44, 67, -56, -33, 31, -65, 15, 46, 17, 
    99, -106, 37, 64, -23, 41, -69, 55, 13, 106, 
    33, 23, 13, 2, -44, -23, -80, -15, 84, 26, 
    -54, 58, -1, -39, 7, -44, -4, -51, 17, 28, 
    -106, 76, 10, -93, 42, -17, 74, 55, -37, -23, 
    79, 48, 25, 45, 20, 78, -40, -67, -97, -62, 
    49, -7, -37, 70, -66, 26, 56, -5, 14, -81, 
    -54, -29, 46, -55, -1, 10, 8, 54, 41, 5, 
    47, -79, 76, 46, 87, 2, 8, -27, -10, 21, 
    26, 56, 7, 66, -75, 4, 1, -41, -41, -1, 
    -65, -3, 86, -23, 64, -60, 58, 103, 71, -98, 
    -24, -5, 92, -9, -72, 15, 71, 2, 44, -65, 
    -37, 70, 67, 4, -11, 67, -63, 85, 18, 7, 
    27, -23, -55, -10, 31, -20, -26, 50, -74, 6, 
    -53, 54, -36, 29, -17, 11, 27, 1, 4, -29, 
    7, -30, 15, 28, 50, 77, 33, -47, 51, 18, 
    -18, -8, -10, 18, 48, 40, -4, 63, 18, -5, 
    71, 51, -9, 47, 27, -24, -32, -58, -23, 8, 
    -73, 31, -62, -38, 8, -30, -53, 13, 32, 42, 
    61, 70, -82, -47, 32, 32, -76, 91, -19, -29, 
    -24, -68, -23, -50, -122, 10, -6, -50, -23, 40, 
    22, 63, -6, -10, 36, -9, 26, 115, -32, 14, 
    40, 41, 26, -62, -65, -36, -42, 0, 48, 36, 
    27, 17, 42, 45, 41, 5, 34, -34, 34, 39, 
    -3, -52, -14, -8, 19, -37, 12, 11, -3, -85, 
    -33, -41, -47, 59, -61, 26, 21, -19, 4, -62, 
    15, -29, -58, 20, 26, 47, -45, -74, -39, -8, 
    -17, -25, 7, -48, 17, 18, 3, 22, -8, 94, 
    5, -23, -60, 17, -23, 16, -52, 96, -55, -16, 
    97, -44, 51, -10, 26, -85, 91, 99, -75, -39, 
    -125, -2, 43, -85, -105, -71, 6, -35, -49, 29, 
    17, 93, 45, 34, -98, -65, -21, -10, 22, -15, 
    66, 51, -70, 28, 48, 5, 82, -127, -36, -27, 
    -83, 56, -19, -98, 17, -45, 15, 14, -20, 5, 
    42, -60, 34, 18, -12, 20, -55, -8, -14, -30, 
    10, 26, 97, 28, 38, -63, -58, -51, -1, 18, 
    -6, -58, -7, 18, -43, -2, -6, 48, -62, 60, 
    -51, 36, -23, -12, 13, 15, -35, 19, 7, 54, 
    -69, -9, -20, -127, 40, 10, 68, -21, 46, -65, 
    -10, -10, -47, -83, -64, -51, -12, -90, -32, -27, 
    42, -78, -29, 28, -23, 78, -20, 8, -60, 5, 
    -59, -87, 25, 42, -57, -65, -12, 40, 16, 41, 
    65, 74, 15, 20, -23, -85, -16, 20, 24, 38, 
    44, 17, -17, -61, -77, -34, -66, 10, -87, 22, 
    82, -31, -68, -29, -35, -116, 123, 8, -4, -72, 
    -73, 37, -46, 14, 46, -9, -81, 43, -76, 75, 
    -6, 34, 33, 25, 33, 60, 25, -79, 66, -19, 
    4, 30, 14, 41, 33, 38, -8, -29, 78, -18, 
    -8, -22, -83, -22, 22, -43, -18, 11, 31, 36, 
    -15, 17, -10, -27, 1, 26, 23, 48, 54, -16, 
    -81, -15, 28, 58, -31, 7, -27, -71, 42, 48, 
    -51, -56, -24, 24, -18, 25, 72, -13, -86, -1, 
    -55, -18, 47, -121, -39, 113, 36, -127, 35, 52, 
    -23, -25, -38, 96, 43, -19, -35, -20, -96, 39, 
    49, 12, 25, 56, -79, -66, -126, 88, 78, 35, 
    -58, 79, -75, 100, -27, -47, 77, -41, -3, 43, 
    -14, 77, 27, -19, 47, -31, 6, -70, 24, -10, 
    78, -87, 75, -96, -37, -49, 29, 64, -18, 10, 
    -28, -9, -53, -34, 20, -19, -12, 28, -65, -19, 
    -55, 6, 20, -56, 4, -49, 46, 30, 49, -10, 
    -24, -41, -39, 70, 8, -14, -53, 35, 32, 32, 
    14, -28, 11, -54, -46, 59, 68, -21, 21, 81, 
    53, -50, 37, -57, -29, 40, -19, 13, -50, 67, 
    21, -46, 58, 31, 59, 17, -23, 17, 9, -127, 
    -71, -10, 79, -66, 32, 3, -18, -40, 71, 32, 
    51, -47, -93, 25, 62, 1, 20, -13, 54, -19, 
    13, -3, -34, 42, -51, -101, 48, 17, -29, -72, 
    47, 17, 8, -1, 3, 46, 43, 0, -24, 52, 
    62, -33, -20, -88, -23, -4, -21, -20, 46, 28, 
    2, -32, 16, -6, -29, -31, 51, -38, -59, 64, 
    52, -4, 23, 17, -20, -37, -3, 59, 28, -101, 
    3, 65, -14, -40, 84, -10, -70, 32, -78, -21, 
    13, -37, -8, -45, -24, 54, 14, 37, -45, -127, 
    -51, -18, -50, -25, -22, -21, 24, 27, -73, -19, 
    -2, -24, 33, -34, 59, 55, -1, -56, 27, 25, 
    74, -37, -3, -1, 13, 6, -24, -26, -28, -30, 
    -9, 38, 43, 44, 25, 29, 17, -18, -15, 21, 
    16, -32, 19, 31, -67, -24, 14, 24, 3, -114, 
    -88, 37, 21, -30, -62, 80, -58, 63, -17, 36, 
    -68, 91, -19, 53, -34, -2, 78, 15, 31, 31, 
    -90, 2, 42, 62, 43, -52, 74, 27, 72, 51, 
    -30, -47, 14, 35, 37, 40, -29, 24, -81, 16, 
    -31, -124, -19, -27, 62, 25, -21, -14, 53, -48, 
    106, 47, -72, -19, 92, 83, -22, 3, -47, -59, 
    36, 40, 50, 43, 2, 34, -8, 28, -15, 64, 
    -70, -58, -6, -44, -44, -4, 23, 65, 27, 28, 
    18, -45, -5, -44, 16, -26, 22, 27, -25, -57, 
    102, 27, -1, -75, -12, -46, -71, -32, -7, 48, 
    18, 36, 64, -5, 30, 53, -10, -11, -6, -78, 
    33, 43, -43, 9, 77, 45, -64, 51, -18, -86, 
    10, 28, -16, 28, 2, 60, 23, 12, -18, -46, 
    22, 10, -10, -23, -56, -32, -6, -47, 0, 18, 
    -55, 87, 53, -56, 7, 56, -12, 24, 39, 46, 
    33, 6, 35, 4, 28, -6, -70, -80, -94, -20, 
    -44, 11, -32, 15, -56, 41, -45, -55, -10, -6, 
    58, -88, 84, -25, 12, -61, -57, 29, -60, 88, 
    127, -74, -18, 10, -47, 11, -19, 29, -98, -43, 
    -5, 33, 25, -12, -15, 8, 56, 9, -54, -9, 
    52, -40, 54, 26, 18, -73, 56, 15, -19, -39, 
    30, -13, -14, 55, -1, 10, -43, 20, -57, 64, 
    53, -19, -35, -15, 24, -14, 25, -64, -10, 22, 
    29, 34, -84, 24, -61, -25, -26, 55, -49, -43, 
    -8, -3, 3, 25, -95, -43, 13, 74, 19, 77, 
    29, -65, 9, -57, 1, -61, -30, -19, 66, -43, 
    58, -102, 41, -59, -55, -108, 42, -40, 11, -26, 
    -99, 50, 21, 48, 38, 39, -22, 18, -62, 33, 
    -12, -18, 85, -109, -25, -8, 36, -58, 6, 14, 
    30, 64, -28, 6, 59, -3, 80, 56, -30, -3, 
    -102, 53, -34, 19, 25, -99, -5, -72, -64, 34, 
    45, 26, 61, -127, -46, -21, -112, 3, 61, 63, 
    12, -89, -55, 11, -18, -45, 10, 25, -47, -66, 
    77, -84, -37, -67, 4, -31, -54, -32, -45, 17, 
    -48, -34, -49, -34, -13, 44, -40, -27, 54, 29, 
    -1, 16, 67, 40, -8, -33, -6, 8, -56, 70, 
    11, 23, 2, 9, -39, -38, -77, 20, -21, -3, 
    -68, 12, -6, -25, 38, 51, -61, -126, 12, 32, 
    -101, -57, -127, 21, -49, -51, -37, -1, -71, -88, 
    -36, 7, 22, 8, -66, -48, -28, -53, -28, -68, 
    -21, -34, -5, -44, -51, -45, -6, -81, 18, -50, 
    57, 7, -63, -39, -20, 59, 58, -36, -48, -35, 
    66, -38, 51, -76, 45, -127, 29, -15, 69, 13, 
    -52, -33, -52, -26, 30, -37, 15, 19, 12, 76, 
    24, 13, -94, -5, 28, -72, 51, -65, -13, -39, 
    71, 60, 66, 41, 62, 10, -12, 33, 64, -82, 
    50, 93, 72, 78, 22, 73, 24, -56, -20, -15, 
    -5, -23, 34, 62, 35, 39, -34, -37, 28, -46, 
    -94, 28, -10, -20, -48, 14, -27, -61, -30, -35, 
    -110, -46, -35, 10, -14, 12, -7, -38, -12, 27, 
    -81, -68, 2, 67, -2, 22, -84, -2, 66, -56, 
    -59, -17, -127, 41, 22, -10, -6, -68, -23, -25, 
    -4, -39, 13, -53, 39, 18, -60, -12, -3, 46, 
    -18, -29, -81, 32, -123, -32, -86, -29, 40, 48, 
    -83, 15, 5, 25, 16, 32, 76, -32, -30, -9, 
    -25, -88, -9, 13, -102, 1, -27, 33, 26, -16, 
    23, 26, -47, 37, 5, 55, -20, -19, -34, -27, 
    -5, 4, -30, 9, -16, -9, -13, 29, 17, -18, 
    17, -17, -2, -12, 22, -15, 44, -72, -8, -50, 
    -55, -1, 36, -18, -23, -59, 48, 1, -24, -17, 
    -75, -25, 32, 27, -33, 36, 39, -21, -114, -28, 
    3, 25, -77, 33, -36, -30, -34, 13, -52, -66, 
    3, -15, 55, 49, 34, -84, 22, -41, 41, 14, 
    -6, -39, -10, -30, 0, 40, -16, 48, 54, 3, 
    -28, -20, -33, -29, 49, 81, -34, -27, 18, 34, 
    67, 0, -63, 25, 28, -45, 53, -19, 51, -7, 
    -15, -25, -5, -42, -55, 60, -49, 13, 15, 22, 
    74, 45, 60, 40, 73, 20, 31, 100, -8, -49, 
    -3, -8, -5, 13, 7, 39, 16, -32, 16, -38, 
    2, 18, 11, -19, 40, 14, -7, -81, 84, 46, 
    40, -3, -60, -6, 4, 22, 21, 3, 4, -61, 
    -65, 102, -7, -28, 50, -36, 29, -39, -27, -42, 
    -32, 0, 19, -37, -60, 85, 98, -14, -5, 19, 
    -75, -44, 41, 95, -64, 24, -20, 127, 27, 28, 
    7, 3, 88, 60, 4, 49, 60, 29, -3, -18, 
    -34, 35, 47, 30, 93, 70, -126, -94, 41, 77, 
    71, 24, -15, 6, -47, 29, 5, -94, 40, -8, 
    47, 11, -54, 12, 94, -79, 6, -104, -56, -50, 
    29, 50, 37, 56, 89, 73, 15, 55, -19, -94, 
    -6, 29, 5, -85, -25, -53, 46, 99, -48, -14, 
    -57, -43, 103, -93, 6, -1, 80, 19, 21, -16, 
    -68, 13, -41, 72, -44, -34, 127, 3, -77, -32, 
    -48, 13, 38, -95, -54, -105, -27, -64, -49, -43, 
    -3, 63, 100, -1, -94, 32, -23, -37, -63, 10, 
    18, 40, 23, -52, -49, 54, 39, -73, -42, 48, 
    -48, -65, 51, -12, 79, -28, 36, -19, 25, 43, 
    -12, -43, 18, 38, -44, -59, -27, 17, 9, -25, 
    45, -15, -17, 60, 5, 6, -51, 11, 27, -40, 
    -49, -41, -34, 17, 22, 33, 15, -3, -125, -4, 
    24, 34, 21, -113, -87, -81, 49, -19, -45, 43, 
    -33, 13, 15, -7, 32, -35, -73, -82, -94, -69, 
    -17, 22, -100, -21, 20, -16, 39, -70, -8, -72, 
    2, -2, 43, -15, -31, -5, 68, 4, 80, -94, 
    -85, -52, 54, -24, 46, -12, 48, -100, -1, -81, 
    78, -19, 39, 71, -9, 22, 35, 48, 61, -9, 
    -35, -44, 18, -71, -14, 83, 18, 3, 30, -2, 
    -52, 47, -23, 38, -4, -46, 16, -11, -51, 21, 
    -49, -5, -60, -10, -75, -20, 58, -77, -96, -40, 
    -32, -57, 21, -6, -1, -16, 17, -25, -31, 3, 
    1, -127, -24, 50, 45, -42, -4, 0, 59, -9, 
    -45, 61, 20, -73, -12, 40, -14, 21, -3, 18, 
    50, 97, -34, -2, -90, -55, -25, -2, -28, -45, 
    -41, -10, 85, -24, -3, -13, -5, -59, 28, -46, 
    -12, -96, -47, -89, 26, -21, 39, 0, 47, 9, 
    -45, 11, 23, 32, 6, -41, -96, 39, -54, -36, 
    80, 31, -97, -3, -76, 33, 15, 6, 17, -19, 
    -67, -46, 10, -14, -16, -41, -18, -26, 85, 60, 
    41, 84, 41, 43, 39, 16, -30, 13, -39, 54, 
    -18, 5, 36, -16, 21, -72, -46, 43, 5, 13, 
    41, 16, -11, 20, 0, -12, 36, -14, 8, -16, 
    -61, -32, -41, 6, -18, 10, -11, 37, -28, -13, 
    -48, 20, -79, -28, 52, 29, -30, -34, -27, -68, 
    -27, 2, -65, -43, -47, 19, 3, -9, -39, -53, 
    -50, 64, -26, -50, 34, 49, -39, -96, 55, -63, 
    8, -27, -18, -71, 23, 53, 28, -33, 46, 8, 
    26, 39, -9, 49, 27, -71, 51, 71, 3, -54, 
    -50, 14, -8, -49, -77, 38, -13, 22, -10, 46, 
    -16, 8, 42, 50, 31, 30, 118, 28, 25, 75, 
    53, -80, -41, -72, 39, 27, 78, -60, 37, 36, 
    -37, 6, 23, -127, -65, -75, 72, -77, -37, -52, 
    14, 18, 40, -27, 63, -33, -28, 47, -20, 14, 
    62, 25, -105, -48, -19, 102, -43, -11, -53, 26, 
    49, -26, -26, 50, -1, 21, 40, 102, 14, 33, 
    -17, -64, -93, 91, -14, 26, -16, 10, 78, 17, 
    87, 26, -18, 76, 55, -73, -41, 12, -115, 20, 
    -59, -107, -63, 76, 50, 76, 31, 40, 5, -41, 
    -24, -98, -100, -120, 47, -92, -26, 35, -27, -30, 
    -30, -88, 16, 55, 55, -13, -28, -33, 28, -71, 
    24, -82, -38, 23, -41, 75, 42, -71, -60, 16, 
    -83, 64, -62, -40, 0, -47, -50, -16, 6, -113, 
    -68, 53, -36, 73, -27, -21, -20, 21, 9, -86, 
    -15, 26, 3, -3, 19, 35, 27, 40, 24, -36, 
    19, -28, 20, -7, -32, 17, -3, -64, -87, -45, 
    -19, 49, 31, 31, 19, -100, 40, 26, 0, -26, 
    17, -23, 43, 3, 17, -16, -18, 5, 61, 1, 
    53, 64, -21, 24, 68, 32, 0, 25, -19, -3, 
    -20, 23, -43, 3, 25, -48, 21, 19, -6, 25, 
    58, -7, 0, 33, -58, -28, -71, -48, -14, 9, 
    67, -19, -43, 3, -29, 53, 79, 32, -2, 40, 
    -4, -45, -14, 54, 63, 29, 32, 22, -9, -35, 
    43, 18, 14, 3, 2, -47, 34, -5, -43, 18, 
    56, 64, -46, 52, -67, -9, -94, 36, 24, 79, 
    -10, -47, -4, -81, 31, -76, 78, 14, 15, -14, 
    51, -92, 46, -102, 9, -22, 4, -12, -2, 57, 
    -3, -83, -69, 73, 24, -1, -66, -45, -21, 36, 
    77, 73, -52, 9, -3, 13, -8, 55, 59, -32, 
    69, -21, 71, -31, -57, -9, -32, 43, -43, 3, 
    15, 118, -26, -37, 6, -51, -16, 9, 35, -49, 
    84, -71, 28, -47, 90, 25, 8, 111, 10, 48, 
    -22, -10, -55, 19, -38, -7, -30, -80, -9, 14, 
    -55, -44, 15, -57, -25, -41, -30, 4, -86, -68, 
    -57, -48, 35, -56, 35, 33, -19, -80, 22, 69, 
    -63, -17, -54, -36, 11, 54, 26, -14, -52, 58, 
    -44, 22, 24, 20, 34, -35, -76, 70, 64, 24, 
    -16, 68, 82, 38, 111, 75, -51, -46, -16, 51, 
    57, 127, 38, -25, -15, -33, -70, -29, -61, 56, 
    123, 1, 66, 70, -36, -5, -17, 5, 118, -53, 
    34, 29, -41, 26, 48, -87, -23, -6, -15, 33, 
    118, 10, -18, -62, -21, 7, 45, 4, 127, 44, 
    34, -53, 4, 46, 92, 1, -41, 5, -51, -87, 
    15, -15, 8, 44, -38, 30, -44, 33, 33, 2, 
    -56, 68, 35, -28, 7, 60, -2, 12, 42, -99, 
    23, -56, -12, -8, -33, -9, 58, -69, -67, -110, 
    -94, 81, 25, -57, -7, -93, 19, -2, -8, -79, 
    43, -31, 35, -49, 47, 47, -4, -41, -94, -61, 
    11, 14, -29, 25, -19, -41, 10, -18, -30, 81, 
    -39, 0, 54, 52, 60, 56, -83, 58, 66, 47, 
    -29, 113, -32, 48, 64, 15, 6, 9, -69, -58, 
    54, -39, 22, 39, 39, 68, -9, -2, 2, -84, 
    -51, -12, -91, -99, -41, -26, 83, -67, 23, -32, 
    -73, 44, -95, 70, -81, -31, 41, 57, -11, -78, 
    10, -20, -84, -20, -68, 65, 62, -30, 86, -71, 
    -60, -124, 19, -19, -3, -77, -3, -17, -104, -16, 
    -93, -19, 56, 40, -7, 127, -57, 73, -35, 30, 
    -57, -71, -77, -96, -7, 40, -50, -22, 9, 72, 
    -6, -26, 48, 100, 6, 34, 109, 36, 31, -111, 
    -82, -52, -39, -84, -66, -7, -36, 58, -30, 29, 
    45, 74, -2, 63, 81, -54, -22, -53, 35, -16, 
    39, 43, 27, 73, 92, 70, 89, -65, 22, -21, 
    127, -26, 16, 69, -9, -78, 60, -104, 62, 40, 
    -64, -20, -10, 52, 47, -20, 53, 58, -38, 70, 
    70, -51, 11, 18, -31, 72, -25, 22, -29, 74, 
    -40, 12, -26, 53, 43, -34, 58, 18, 0, -6, 
    -25, -27, 19, -39, 17, -52, -36, 29, 5, -74, 
    -29, -51, -16, -38, 19, -24, -49, -76, -43, 7, 
    -13, 46, 49, 64, 23, 32, -42, -14, 55, 31, 
    5, -2, -36, 16, -43, 17, -18, -28, -33, 1, 
    -8, -41, -52, 14, 42, 27, -1, -29, -49, 37, 
    5, 13, -17, -20, -31, 27, 38, 46, -56, 53, 
    -32, -41, -42, 36, 42, -23, 39, -37, -34, -17, 
    28, -4, 1, -57, 23, -14, -53, 33, 78, 0, 
    -10, 13, -5, -62, -71, -24, 21, -35, -28, -36, 
    -75, -72, -26, 1, -1, -23, -20, -86, -22, 6, 
    -52, 18, -52, -93, -127, -111, 15, -35, -9, -78, 
    6, 49, 19, -46, 7, 5, -10, 28, -7, 34, 
    6, -78, 6, -11, -66, 55, -35, -24, -38, -61, 
    -33, 43, 49, 22, -49, -40, -84, -13, 52, -29, 
    -36, -32, 9, 44, 6, 55, 45, -54, -29, -80, 
    -102, -16, 99, 58, 80, 45, 12, -41, 19, -27, 
    -50, -57, 87, -82, 3, 27, 29, -24, 20, -7, 
    14, 8, -59, -19, 71, 20, -7, -61, -38, -52, 
    93, -83, 77, 33, 92, 23, -108, 49, -63, 7, 
    44, -99, -74, 67, 71, 7, 28, -51, -2, -35, 
    0, 72, 14, 53, 24, -1, 73, -73, -97, -73, 
    -65, -6, -68, 57, -102, 76, -44, -44, 23, -12, 
    32, 47, 12, -10, 50, -47, 74, 79, -48, 3, 
    41, 100, 45, 30, 13, -52, -4, -26, -91, -40, 
    -40, 52, -39, -55, -9, -6, -28, -19, 2, -77, 
    90, -63, -25, -32, -24, 34, 66, 1, -82, -50, 
    -6, 7, -44, -15, -20, -3, -55, -77, 68, -25, 
    26, 45, 80, 32, -40, -90, 51, 52, 38, -32, 
    -46, -1, 35, 47, 40, 51, -81, 4, -35, -5, 
    -26, 30, -21, -11, -34, 7, -22, -13, -41, -18, 
    1, -49, -64, -68, -26, 8, -34, 0, 16, -38, 
    -83, -72, -34, -56, -40, 14, -19, -54, -11, 33, 
    -16, 28, -11, -4, 12, -38, -11, -44, -1, 14, 
    23, -44, 86, -57, 56, -21, -20, -12, 0, 67, 
    -66, 60, 22, 1, 29, -21, -70, 4, 35, 82, 
    -14, 1, -18, 59, 36, -49, -36, 43, 79, 72, 
    -26, 3, 36, 17, 10, 69, 4, 62, -6, -47, 
    -27, 16, 24, 20, -21, -5, 17, -4, -67, 83, 
    -107, -83, 22, -38, -35, 42, -84, 42, -27, -2, 
    -125, -120, -29, 13, -96, 52, 70, -42, -52, 19, 
    49, 26, -50, 55, 6, -45, -31, 42, 59, -115, 
    -124, 62, -90, -32, 64, 19, -16, 65, -22, 52, 
    -34, 7, -93, 32, -89, 56, 42, 73, 55, -28, 
    -20, -11, -29, 78, -14, -1, -49, -39, -45, 36, 
    -15, 89, -41, 103, 12, -98, 19, -39, 92, 72, 
    -32, 5, -8, -20, -27, -56, -41, 75, 75, -62, 
    -55, -56, -50, -46, -42, -7, -74, -3, -24, -12, 
    -35, -50, -50, -1, -26, -22, -68, 90, 68, 23, 
    8, -67, 91, 11, 64, -16, 23, 75, 50, 11, 
    37, 85, 36, 75, 54, 22, 1, -39, -70, 7, 
    -84, 84, 24, 9, 51, -46, 66, 59, 7, -54, 
    -33, 99, -30, 88, -76, 31, -66, 34, -28, -8, 
    -16, -4, -51, -1, 64, 127, -4, -84, 47, 77, 
    -2, 14, -41, 17, 52, 24, 43, -25, 28, 21, 
    99, 20, -10, 41, 45, -15, 14, -44, -8, -10, 
    -20, -19, 10, 7, 71, 15, 16, -60, -33, -40, 
    37, -1, -14, -46, -60, -13, 59, 55, 39, -19, 
    33, -55, 5, -51, -60, -5, 12, 30, -3, -35, 
    -20, -17, 62, 36, 18, 47, -13, 34, 45, 44, 
    -17, -70, -40, 23, -102, -17, -18, -64, 27, -38, 
    -20, -47, -37, 9, -20, 12, 71, 28, 6, -30, 
    -48, 48, -45, 49, 10, 10, -42, -50, -20, -29, 
    40, 16, -21, 67, 46, -30, 15, 7, 24, 99, 
    57, -48, 54, -7, -16, 19, -57, -69, 25, 37, 
    -6, 17, 10, -34, -66, 56, -59, 62, -65, 27, 
    -58, -27, -17, -22, 57, -2, 72, 57, -19, -72, 
    32, -88, 6, -98, 2, -22, 15, -21, 42, -28, 
    21, -17, -22, -46, -15, -4, 55, 3, 47, 67, 
    17, 29, 1, 11, 22, 41, 0, 18, 35, -91, 
    2, -6, 29, -14, -65, -58, -33, -110, -81, 104, 
    22, -11, 90, -5, 46, 38, -38, -3, 72, -106, 
    -15, -12, -92, -25, 39, -69, 26, 13, 12, 28, 
    -59, 1, 12, 36, -3, -40, 0, 36, -45, 52, 
    -125, 40, -19, -26, -13, 34, -8, -13, 77, 20, 
    -42, 4, -24, -4, -53, 90, -10, -54, -59, 3, 
    -11, 77, -67, 60, 31, 59, -46, 18, 7, 42, 
    -39, -53, 26, -1, 29, -54, -6, -16, 21, -112, 
    -20, -86, -28, -20, 38, 1, -30, 44, -37, 21, 
    -10, 0, -35, 10, 67, 7, -12, 36, -47, 36, 
    109, 78, -37, 26, -19, 11, -15, -64, -109, 24, 
    48, 47, -59, 39, -45, -42, 64, -49, -81, -52, 
    24, 43, 25, 77, -79, -13, 12, -49, -19, 10, 
    32, -71, 25, -31, -51, -15, -25, 8, 21, -10, 
    -79, -38, -19, -1, -40, -79, 42, -29, 50, 13, 
    29, -1, 23, -67, 0, 59, -66, 17, -16, 3, 
    6, 33, 9, 46, 21, -44, 79, 20, 46, -14, 
    -20, 5, -35, -28, 11, 89, 14, -33, 19, 39, 
    -34, -1, 25, 51, -63, 85, -20, 46, -26, -54, 
    50, 74, -35, 91, -35, 27, 30, 21, 30, -53, 
    -21, -7, 24, 75, -37, 28, 83, 60, -94, -24, 
    -27, 71, -9, -14, -97, -9, 60, 12, 51, 6, 
    70, 66, 42, 107, 55, 13, -13, 39, -5, -70, 
    2, -126, 53, 8, -57, 44, 96, -63, 68, 20, 
    -43, 31, -17, -54, 30, -42, -36, -70, 5, -32, 
    -38, -43, -54, -50, -20, -65, -7, -62, 85, 27, 
    -92, -18, 95, 83, -90, -34, 3, -119, -16, -51, 
    -101, -20, 12, 81, -22, -54, -26, 27, -28, 51, 
    -83, 66, 11, -49, -5, 4, -91, 127, 1, 91, 
    -69, 58, -21, 14, 72, 42, -25, -10, 42, -79, 
    -56, 54, 1, -41, -62, -52, -52, 46, 31, -18, 
    -58, 13, -52, 15, -18, -63, -98, -19, -68, 49, 
    11, -2, -60, 36, 80, 65, -8, -24, -16, -25, 
    30, -22, -14, 8, 50, -47, -21, -64, -74, 16, 
    89, -102, -35, 59, -9, -32, 48, -13, 7, 46, 
    34, 75, -21, -60, -104, -40, -5, 65, 4, 3, 
    -18, 38, -16, -2, -37, -75, -11, 1, -61, 4, 
    -59, -31, -49, 14, -56, -47, -32, 30, -127, -5, 
    -47, 11, -4, -26, -50, -5, -40, 26, -31, 54, 
    -79, 37, 13, -22, 10, -21, 39, 15, -43, 3, 
    88, -76, -81, -27, 50, -8, 65, 53, 32, -28, 
    31, 8, -37, 19, -30, -11, 28, 11, 58, 11, 
    0, 14, 51, 38, -96, -77, 58, -17, -34, 54, 
    -20, -25, 25, 26, -53, 24, 41, -43, -33, -68, 
    -80, 6, 13, 4, 80, 23, 43, -86, -50, 6, 
    -91, 31, -7, -15, -19, -36, -89, -5, 38, 7, 
    11, 56, -40, 69, 14, -38, -26, 10, -5, -4, 
    -66, 0, 11, -39, 3, 86, -51, -99, 59, 60, 
    -33, 38, 56, 33, -115, 12, 41, 38, 127, -15, 
    64, 13, -84, 32, -64, -51, -27, -21, 32, -2, 
    11, 54, 37, -47, -23, -30, -25, -34, -53, -30, 
    27, 20, 1, 14, -69, 62, 14, 55, 103, -22, 
    24, 124, -70, -33, -34, 16, 46, 13, 60, -54, 
    18, -25, -65, 8, -48, 94, 101, 1, -91, -41, 
    -33, -127, -27, 125, -58, -74, -28, 40, 2, 63, 
    90, 18, -66, 37, -44, -25, -42, -9, 72, 3, 
    117, 11, -23, 21, 8, -20, -25, 33, 52, 50, 
    10, 56, -10, 10, 32, -48, -31, -44, -5, -38, 
    13, -74, 65, -6, -36, 6, -14, -18, 63, -27, 
    21, -98, -18, -70, -35, -48, 68, -71, 70, -71, 
    -54, 64, -4, 17, 100, -71, -44, -49, -10, 76, 
    -28, 14, -15, 93, 95, 78, 38, 0, 31, -20, 
    -8, -10, -25, 77, -34, -13, -1, -16, 66, -15, 
    28, -52, -37, -37, 36, 16, 76, 18, -18, 69, 
    -5, 14, -25, -56, 81, -23, 59, -32, -29, 34, 
    30, 8, -127, 38, -36, -13, -77, -26, 28, 76, 
    -42, 10, 3, 6, 19, -17, -17, -86, -34, -8, 
    -38, 39, -54, -44, -31, 38, -43, 88, 76, 80, 
    -71, -44, -102, -64, 18, -28, 53, 39, -2, -30, 
    40, 79, -16, 91, 36, 48, 17, 107, -57, 24, 
    13, -22, 54, 118, 73, 92, -57, 108, -21, -65, 
    60, -31, -106, 90, 26, -31, 54, -11, 80, 4, 
    -3, 50, -87, -59, 41, 36, -98, -6, 6, -26, 
    -27, 66, 11, -49, -96, 47, -40, 70, 50, 7, 
    57, 39, -44, -12, -14, 12, -12, -67, -10, -55, 
    -3, -23, 49, -18, 61, 58, 5, 73, 1, 1, 
    18, 76, 48, 28, 53, -16, 62, 91, -54, -7, 
    34, 78, -80, 21, -84, 65, 76, -44, -27, -46, 
    74, -12, 44, -77, -13, 78, 58, 57, -14, -41, 
    -1, 92, 32, 87, 26, 2, -9, 2, 68, 58, 
    59, -93, 35, 31, 5, 74, 7, -26, 3, 112, 
    -26, -95, 50, -78, -10, -42, 0, -18, 67, -88, 
    -6, 20, 2, 21, -9, -19, -11, 123, 38, -71, 
    -42, -74, -6, 15, -69, -9, -69, 35, 15, 87, 
    -2, 20, 32, -34, 86, -83, -21, 0, -22, -16, 
    39, -15, 59, -20, -25, 17, -16, -5, 50, 43, 
    65, 16, -49, 29, -38, -28, -65, 41, -30, 15, 
    7, 5, -17, 0, -3, 12, -13, -93, 31, -13, 
    -17, -28, 36, -45, -57, 28, 39, 46, -33, 49, 
    -7, 7, -58, 21, 29, -25, -13, 0, 53, 19, 
    -127, 5, 13, -20, -60, -5, 52, -21, -9, -10, 
    51, -6, -13, 9, -53, -64, 68, -4, 62, 28, 
    -5, -23, -2, -52, 18, 1, -39, -32, -62, 0, 
    62, 39, -23, -95, 9, -53, -33, 42, 20, 20, 
    32, 2, 0, 0, -20, 24, 88, 31, -67, -17, 
    -1, -21, -124, -35, -10, 29, 13, 62, -10, 36, 
    86, 92, -49, 24, 15, 112, -40, -93, -67, 83, 
    11, -95, 43, 4, 63, 31, 11, 29, -96, -37, 
    87, 64, -44, -40, 75, -14, 52, 90, -2, -127, 
    -72, 110, 10, 29, 30, -26, 19, 0, 49, 82, 
    18, 51, -37, -25, -21, 44, -16, 58, -56, -45, 
    1, 77, -29, -73, -7, -75, 2, -28, -23, -52, 
    59, 56, 38, 5, 45, 65, -105, 33, 83, 16, 
    95, -121, -63, 25, -50, -24, -13, -33, 41, -106, 
    110, 18, 53, -13, 69, 23, 2, 95, -14, 67, 
    71, 66, -1, -88, -69, 4, -15, -49, 4, 32, 
    7, 79, 18, -40, -55, 78, 11, 14, -43, -35, 
    78, -24, 45, 63, -65, 32, 53, 66, -10, 66, 
    50, 16, -78, 31, -54, 6, -38, -53, -122, 15, 
    -19, 57, 29, -38, 60, 61, -39, -2, -19, -7, 
    56, 11, 15, 41, -13, -20, 127, -35, 10, 74, 
    -41, -42, 97, 61, -63, -25, -13, 59, -36, 99, 
    95, -127, -40, -9, 84, -114, 78, 40, 60, 25, 
    -44, -17, 51, -23, 29, -61, 24, -78, 22, -98, 
    54, -58, 95, 17, -31, 86, -78, 25, 83, -15, 
    -52, -5, 64, -31, 26, -72, 83, -26, -27, -36, 
    27, -56, 46, -12, 61, 16, -2, -100, 63, -12, 
    34, -34, -41, 21, 6, -13, 58, -89, 22, -58, 
    -44, 45, -12, -11, 76, -37, -58, -36, -37, 126, 
    127, -35, -26, -75, -51, 60, 53, -44, 25, 89, 
    33, -44, 12, -25, -3, 50, 68, -28, 59, -47, 
    -41, -11, 20, -32, 95, 57, 7, -116, 72, 77, 
    29, -78, -41, 13, 12, -57, 19, -42, 64, -80, 
    51, 41, 74, -70, -59, 35, 102, 41, 127, -26, 
    -22, -27, 23, 50, 120, -43, -2, 4, 3, -62, 
    -25, 29, 52, 66, 70, -32, -38, 119, 1, -11, 
    -22, 42, -9, -21, -56, -17, 32, 17, -52, 14, 
    -61, 42, -64, -83, -53, -16, -66, -100, 39, 84, 
    2, -10, 26, 9, 54, 54, -16, -73, -20, -7, 
    -13, -31, 0, 39, 58, 39, 6, 72, -10, 51, 
    -41, -103, -51, -30, -34, -45, 38, 81, 73, 64, 
    4, -32, 8, -4, 79, 88, 127, 48, -52, -61, 
    -42, -10, 2, -32, -44, -48, 117, 51, 66, -15, 
    -105, 32, -28, -1, 38, -17, -28, 69, -66, -32, 
    -7, 32, -54, 62, -9, -13, 47, 73, -41, -38, 
    56, -60, -84, -53, -56, 105, 27, -23, 73, 28, 
    59, 33, -72, -4, -39, 0, -21, -38, -61, 88, 
    81, -5, 54, 79, -15, 25, 3, -33, -24, 24, 
    70, 31, 32, -10, 30, -12, 15, -15, 73, -69, 
    -38, 13, 49, -12, 34, -17, 7, 20, 3, 61, 
    -56, -50, 51, 82, 5, 1, -95, 36, -98, -48, 
    29, 32, 37, -87, -95, 36, -71, -49, 27, -30, 
    -54, 16, 22, -91, 15, -31, -89, 26, -9, -4, 
    37, -42, -32, -9, 85, -96, -86, -35, 8, -15, 
    -42, -9, 91, -12, -39, -20, -30, 39, 86, -85, 
    98, 70, 19, -100, 19, -53, 34, 14, 23, -50, 
    -33, -24, 59, -55, -27, -13, 82, -5, -78, -48, 
    35, -58, -2, 5, 6, 56, 12, -1, -19, -47, 
    -58, 20, 64, -21, -42, -24, -9, 22, -40, 78, 
    -127, 42, -29, -69, -51, -27, -22, 12, -28, -27, 
    -30, 34, 36, -39, -2, -35, 24, 46, 0, 12, 
    -29, 74, -73, 62, -50, 64, 18, -40, -7, 44, 
    55, 77, -41, -5, 100, -29, -51, -55, 45, 48, 
    -55, -64, 54, 29, -69, 43, -106, -51, 60, 82, 
    -31, -53, 0, 87, -101, 73, 44, -18, 30, 58, 
    8, -33, 17, 18, -42, 28, 77, -56, 5, 30, 
    -16, -67, 19, -56, 57, 4, 62, 21, -75, 12, 
    32, -56, -40, 0, -123, -51, -93, 10, -61, 22, 
    -14, -6, 69, 83, -49, 61, -98, 93, -65, 18, 
    -34, -63, -60, -8, 43, -26, 72, 50, 64, -106, 
    -32, 61, 92, -77, 58, -55, 49, -58, -68, 15, 
    -48, -23, -71, -14, -22, 86, -70, 53, 68, 76, 
    -30, 81, 23, 27, -10, -41, -19, -23, -35, 32, 
    -53, -79, 42, -46, 61, 45, 16, 49, 48, 15, 
    4, -23, -41, -65, -44, -75, -25, -51, -39, 33, 
    -47, -10, 34, -53, -31, -62, 17, 13, -9, 11, 
    12, -54, -32, -27, -5, 36, 19, 56, 59, -83, 
    -91, 70, -22, 66, 77, -37, -15, 44, -39, -5, 
    10, 28, -40, -40, 96, 3, 29, 30, 32, -19, 
    -54, -25, -6, -52, 16, 68, 21, -43, 68, 29, 
    -46, -85, -32, -66, 0, 16, 30, -70, 23, -41, 
    36, -1, 22, -33, -35, 45, 14, -78, -47, -40, 
    18, -28, -32, -49, 49, 22, 4, 34, -3, 42, 
    -99, -14, 11, 29, 5, -26, -48, -71, -43, -26, 
    -52, 6, -73, 13, -64, -41, -25, -80, -30, 22, 
    -10, -4, 47, 29, -76, -44, -22, -39, -48, 35, 
    -57, 35, -37, 45, -59, -57, -30, 69, 61, 50, 
    11, 10, -27, 40, 65, 12, 54, -10, -3, -33, 
    -51, 18, 8, 13, 83, -33, 11, -64, -15, 27, 
    -49, -24, 0, 36, 21, 51, -12, -23, 28, -13, 
    -12, 53, 48, 1, -51, 63, 36, -33, -28, 48, 
    -43, 57, -83, 8, -41, -16, 26, -51, 27, 39, 
    13, 25, -28, -17, 18, -108, 68, 62, 126, 89, 
    -10, 47, 77, 23, -19, 68, 57, 32, 120, 67, 
    26, 94, -65, 114, 65, -31, 13, 40, -49, 113, 
    -2, 69, -35, 101, 119, 101, -22, -56, 0, 56, 
    -59, 14, 17, 6, -70, 30, 45, 40, 32, -28, 
    -39, -17, -31, 77, -20, -96, -11, 3, -106, -39, 
    -41, -15, -37, -40, 113, -5, 38, 70, 43, -30, 
    1, -12, 55, 69, -97, 21, 32, -34, 86, 61, 
    31, 27, 26, -75, -3, 37, 44, -49, 24, -32, 
    -57, -59, -45, -58, -17, -49, 28, 0, 3, -9, 
    1, 77, 127, -16, -49, -44, -9, -15, -12, 43, 
    40, 22, -29, 100, 66, 63, -51, -37, -80, 58, 
    0, 37, -36, 36, -28, 4, 23, 53, -103, -35, 
    6, 53, -79, 61, 42, -28, 73, 48, -1, 43, 
    29, -12, -26, 80, -18, 106, -56, 54, 6, 58, 
    -4, 30, -52, -65, -7, -100, -59, -24, 77, 61, 
    3, 55, 8, 55, -9, -14, 97, 38, 36, -5, 
    -123, 18, -61, -19, 31, -27, -13, 10, -44, -34, 
    -11, 9, -96, -21, -23, -48, -24, 5, -53, -44, 
    65, 1, -41, 63, 63, -4, -44, -26, 65, 35, 
    -53, 42, -48, 127, 21, -26, 55, 89, 70, -4, 
    -24, 58, 93, -3, -34, -21, 21, -6, 52, -36, 
    -2, 46, -41, 5, 107, 69, -49, 50, -23, 115, 
    -7, 18, -46, -9, -60, -45, -97, 94, 44, 62, 
    -77, -27, 60, -44, -38, -25, -57, -63, -17, 1, 
    -20, -1, 45, 60, -41, 24, 15, -32, -24, 9, 
    36, -33, -38, 55, -74, 26, -44, 19, -80, -30, 
    5, -36, -57, -13, 14, 79, 22, 32, -54, 90, 
    -28, -8, -90, -35, -49, 13, 7, -38, -5, 32, 
    102, -52, 84, -62, 42, -86, -27, -46, -31, -16, 
    -124, 19, -77, -29, -57, 19, -4, 91, -3, 11, 
    -47, -26, -36, -60, -73, -110, 45, -59, -14, -9, 
    -74, -41, -59, 58, -25, -80, -19, 60, 72, 24, 
    -55, -47, 63, -3, 50, -63, -43, 74, 51, 52, 
    17, 35, 4, 9, 51, -48, 36, 9, 56, -54, 
    36, 36, -56, -71, 6, -41, 32, 8, -26, -30, 
    75, -72, 57, -3, 0, 74, -112, -58, -8, 26, 
    -10, 49, 0, -25, 22, -63, -27, -58, -37, 45, 
    -50, 21, -28, 3, 8, 31, 16, -53, 56, 20, 
    72, -22, -40, 38, 33, -62, -31, 65, 5, -51, 
    -36, 11, 62, -17, -10, -24, -22, -51, 40, 21, 
    -4, 74, -80, 37, -43, 12, -22, -58, -17, 32, 
    -9, -69, 65, 45, -41, -127, 43, -34, 90, -49, 
    -9, 55, 27, 21, -20, 19, -32, -17, -28, -21, 
    -36, -37, 40, -13, 51, -35, -63, 28, -31, -53, 
    -43, -108, 12, -6, -19, -42, -23, -27, 9, 29, 
    14, -19, -71, 23, -62, 12, -24, -16, 45, 29, 
    50, 12, -5, 93, 35, -11, 69, -28, -8, -66, 
    7, -12, 24, 51, 75, 41, 32, -19, -65, -51, 
    -35, -34, 51, -63, -79, 44, -18, 64, -41, 66, 
    29, 32, -21, -7, 81, -62, -64, -16, -82, 2, 
    -25, -1, 26, 89, 63, 25, 7, -102, -30, 72, 
    83, 13, -69, -84, -108, -37, -97, 6, 110, 100, 
    20, 11, -29, 57, -5, 48, 2, 78, 90, -10, 
    -60, 19, 77, 36, -12, -37, -33, 32, -29, 43, 
    41, 44, -94, -84, 41, -44, -74, 57, 57, 44, 
    76, 68, 51, -31, 49, 39, -26, 0, -83, -114, 
    -50, -18, 44, -29, -31, 3, 35, 70, 56, -44, 
    -41, -6, -56, 32, 13, -5, 57, -13, 126, -9, 
    86, 45, -85, -30, -76, -46, -49, 47, 40, -24, 
    56, 27, 73, 33, 68, -16, -37, 21, -80, 9, 
    19, 16, 15, 55, 67, 51, 57, -65, -12, 73, 
    -50, 53, -31, -106, -64, 32, -18, 48, 36, -95, 
    -123, 62, -47, -32, 15, -63, -64, -58, 59, -121, 
    11, -79, -57, 38, 43, 49, -52, 45, 94, 78, 
    74, 75, -70, -26, -5, -63, -18, 29, 10, 127, 
    -41, 55, -71, 70, 2, -20, 44, -23, -56, 0, 
    84, 36, -49, -79, 23, -21, -5, 4, 1, 35, 
    39, 23, 6, 30, -69, 20, -36, -9, -90, -41, 
    42, 3, 16, 53, -19, 38, -17, 2, -4, 43, 
    32, -33, -18, 43, -49, 37, 36, 1, -53, 32, 
    -1, 45, 93, 46, -103, 74, -66, 55, 61, 68, 
    -79, 22, 103, 6, 24, 98, -30, -8, -28, 50, 
    103, -37, -65, 32, 24, 42, -33, 6, 22, -16, 
    -20, -121, -38, -52, -26, -109, -8, 47, 32, -127, 
    -113, 65, 104, -10, 57, 54, 94, -48, 16, 4, 
    70, -9, 60, 62, 9, 16, 52, -9, 80, -84, 
    -16, -99, 3, -33, -39, 42, 0, -35, 31, -50, 
    31, -55, 65, -27, 19, -19, 21, 13, 81, -11, 
    -55, 16, 73, 27, 68, -22, -5, 9, -11, 24, 
    -31, 55, 3, 50, -61, 75, -36, -2, 37, 54, 
    127, -17, -85, 79, -31, -20, 108, 107, -45, 60, 
    30, -27, 20, 50, 61, 99, 51, -9, 35, 12, 
    -51, 89, 29, 26, -21, -23, 29, 13, 3, -6, 
    60, 14, 75, 6, 6, -8, 71, -50, 32, 9, 
    -53, -1, -15, -42, 10, -5, 65, 28, -26, -6, 
    15, -32, 26, -6, -90, -124, -16, -3, 4, -81, 
    -26, -32, 48, -7, -18, -17, 103, -95, -31, -49, 
    23, 69, -1, 65, -26, 24, 127, -65, 32, 88, 
    88, -29, -76, -5, 25, 35, 17, -83, 39, -69, 
    -22, -34, -10, 55, -35, -20, 43, -12, 33, -20, 
    -80, -66, -9, -22, 99, 26, 79, -14, -34, -30, 
    34, 15, -19, 74, 4, 85, -20, 17, 17, -70, 
    -49, 48, 16, 21, -23, 88, 1, 11, -48, 51, 
    -5, -34, 32, -6, 10, 76, -8, -5, -2, -18, 
    -2, 47, 62, 12, 0, -49, 31, 11, -51, 26, 
    59, -74, -13, -15, 6, 30, -17, 1, 60, 28, 
    41, -1, -30, -34, 17, 46, -1, 14, -46, -50, 
    37, -50, 61, -2, 56, -30, -10, -73, -27, 11, 
    4, 14, 31, 16, 27, 25, 53, 66, 26, 102, 
    -5, 97, -36, 61, 55, -55, -127, 63, 42, 40, 
    -15, 71, 24, 77, -17, 4, 26, -55, 1, -67, 
    -77, 54, -62, -10, 58, -48, 39, -9, 18, 36, 
    47, -90, -17, -27, -40, 57, -95, -52, 60, 69, 
    -30, -67, 99, -62, 38, -6, -78, 98, 16, 66, 
    -20, 87, 24, 82, 24, -89, -113, 56, 71, -19, 
    -12, -88, -12, 37, -36, -63, -40, -53, -54, -40, 
    -48, 73, -3, 41, 55, -8, 43, -19, -2, -39, 
    -4, -52, -23, -56, 30, 55, -13, 29, 65, 18, 
    -67, -52, -11, 0, -19, 23, -5, -47, 56, 127, 
    31, -14, 53, -23, -104, 23, -67, -7, -85, -57, 
    -56, 58, -47, -37, -30, 19, -24, -2, 28, -26, 
    68, 89, 50, -80, -61, -82, -7, -112, -3, 6, 
    -97, 21, -67, -66, -19, -82, 54, -13, -38, 105, 
    20, -2, 55, 96, 92, -97, -6, 30, 52, -54, 
    46, 63, -77, 14, 66, -66, -21, 48, -11, -3, 
    -4, 4, -24, -84, 5, -52, 37, 21, 33, 50, 
    11, 35, -31, -44, 7, -15, -81, -15, -110, -52, 
    -14, 100, -29, 24, -53, 47, 20, 36, 4, 71, 
    28, -73, 39, 51, 7, 5, -80, 51, 31, 42, 
    3, 52, 11, -20, -41, 31, -24, 22, -14, 34, 
    -8, 38, 2, -32, 32, 57, -73, -7, -44, 28, 
    -101, -32, -58, 58, 30, 54, -16, -15, 6, 105, 
    -12, 41, -62, -62, 8, -10, 48, -44, -117, 9, 
    -19, 48, 48, 44, 51, -51, -86, -23, -44, -56, 
    64, 54, -52, 14, 52, 3, -1, -48, -32, -53, 
    -60, 108, 46, 44, 90, 9, -2, 53, -1, -34, 
    55, -3, -25, 40, 65, -48, -61, 51, -24, 67, 
    98, -64, -14, -37, -28, -49, 29, -10, -67, -39, 
    33, 22, 37, -61, 29, -16, 5, 3, -26, -32, 
    -1, -3, -16, 3, -15, -16, 101, 50, 40, -29, 
    -12, 5, 56, 23, 25, -127, 59, 56, -57, 3, 
    -16, -46, -69, -76, 26, 60, 77, -87, 23, 17, 
    34, -18, 1, -13, 1, -20, -2, 57, -2, -40, 
    7, 42, -36, 41, 3, -5, -46, -60, -19, -35, 
    16, 43, 5, 76, -42, -23, -65, 72, 49, -90, 
    -13, 19, 96, 35, 31, -46, -47, -32, 85, -66, 
    56, 32, 9, -85, 127, 11, 11, -7, 0, 83, 
    -24, -41, 11, 38, -14, -36, 40, -23, 88, 36, 
    -2, 23, -110, 25, -51, 27, -2, 62, -76, 53, 
    36, 58, 31, 51, -99, 42, -82, -66, 24, 14, 
    61, 68, -51, -44, 33, 65, 53, -25, 30, -64, 
    14, -31, -20, -41, 30, -54, 2, -5, 124, -43, 
    -4, -47, 6, 9, 126, 13, 41, 40, -87, -31, 
    24, 41, -29, 55, 21, -3, -121, 38, 44, 33, 
    59, -5, -34, 59, -14, 50, -52, -13, 16, 21, 
    33, 24, -38, 16, 44, -17, -81, -34, -17, -31, 
    -18, -15, -108, 33, 25, 116, -30, -39, 54, -6, 
    -77, -6, -127, 74, -48, -52, -55, 12, 71, -31, 
    62, 12, -70, 30, -31, -42, -102, -53, 12, 0, 
    -123, 36, 5, -16, 71, 38, 24, -43, -10, -21, 
    35, 21, -33, -46, 82, 47, 71, 34, 93, -54, 
    -35, 39, 38, 40, -24, 33, 30, 59, 2, -8, 
    32, -3, 47, -32, 3, 2, 95, -4, 13, 62, 
    -42, -87, 114, 1, 38, 84, -16, 29, 29, -28, 
    18, 6, -11, 1, 61, -51, 6, 32, -56, 2, 
    -45, -46, -22, -12, -104, -62, 17, -118, -74, 18, 
    -2, 69, -40, 33, 27, -22, -46, -61, 71, 13, 
    -30, 55, -18, 73, -111, -35, 24, -82, -7, -38, 
    -62, -32, 13, -27, 53, 6, -32, -19, -49, -127, 
    -6, -32, 33, 68, 14, -31, 44, -23, 82, 6, 
    16, 22, 17, -62, 88, -20, -14, 22, -27, -11, 
    -32, 42, -37, 97, 18, -26, 2, -52, -1, -4, 
    43, 23, -32, 47, -12, -95, 51, -25, 42, 34, 
    11, 31, 35, -98, -5, 100, 93, 18, -4, 112, 
    2, 3, 3, 0, -78, -50, 27, 77, 82, -50, 
    -6, -13, 11, 50, 93, -37, 70, -86, 40, -19, 
    1, -27, -20, -55, 71, -42, -2, -25, -85, -13, 
    83, -14, -96, -19, -46, -57, 26, -26, 78, -118, 
    -75, 0, -31, 84, 25, -6, -19, -67, -68, -15, 
    23, 56, -29, 28, 77, 62, 47, -33, -126, -5, 
    -10, 16, -68, 61, 36, -11, 43, -1, -15, 49, 
    -31, 18, -79, -19, 27, 29, 11, -42, -77, -28, 
    -59, 28, 13, -28, -75, 31, 39, 23, 41, -9, 
    -72, 14, -56, 10, 3, -82, 35, -15, 9, -22, 
    26, 24, 44, 4, -3, -14, 44, -3, -42, 26, 
    44, 2, -16, 81, 20, 28, 71, 97, 6, -106, 
    75, -12, -29, 41, -120, -30, -100, -106, -70, -81, 
    -57, 17, -72, -55, -41, -56, 5, 52, 25, 17, 
    -67, -79, 26, -37, 50, -8, -87, 51, -36, -17, 
    11, -56, -101, 12, -30, -35, 0, 55, -24, 49, 
    -22, -4, -20, -38, -51, 78, -46, -18, 27, 72, 
    -23, -14, -12, 45, -1, 29, 32, -71, -54, 66, 
    -61, -38, -40, -26, 9, 84, 43, 70, -34, -89, 
    -95, 53, 23, 26, -40, -40, 63, 16, 27, 3, 
    -12, 38, -24, 109, -30, 80, -77, 45, -70, 53, 
    -10, 81, 38, -16, -117, -41, 4, 31, -30, 84, 
    40, -29, -91, 4, 110, -33, -7, -98, 36, -104, 
    124, 37, 40, 81, 27, 11, 33, 1, 29, 5, 
    -10, -26, 53, 77, -4, 15, -29, 16, 12, -54, 
    -78, -52, 28, 61, 118, -17, 23, 96, 18, 18, 
    44, 67, -44, -9, -116, -39, -52, 35, 6, 59, 
    58, 34, 13, 11, -50, -77, 7, 36, -33, -28, 
    -34, -7, -41, 20, -10, 44, 43, 45, 19, -39, 
    127, 16, 2, -11, -20, -8, 104, -10, -21, 73, 
    -23, 20, 32, 7, -10, 39, -67, -78, -22, -23, 
    25, -45, -62, 14, -75, -78, 5, -31, 66, -50, 
    35, -36, -50, 52, -63, -93, -26, -21, -4, -72, 
    52, 99, -111, -11, -11, -49, -80, -15, -47, 2, 
    42, -7, 45, -54, 15, -60, 22, -89, -22, -10, 
    -86, -17, -48, 8, -95, -78, -93, 41, -102, -14, 
    -18, -15, -116, -29, 34, -81, 30, -22, 35, -62, 
};
const TfArray<1, int> tensor_dimension19 = { 1, { 7680 } };
const ALIGN(8) int16_t tensor_data20[96] = { 
    16716, 12509, 15207, 15294, 19962, 16437, 15930, 18653, 21775, 14614, 
    18665, 16647, 15425, 20214, 9940, 17935, 863, -4562, -5818, -12786, 
    -12677, -9192, -12561, -9435, -15751, -4540, -22284, -2468, -10493, -7996, 
    -3787, -4832, 14786, 11575, 14253, 16022, 18049, 24265, 11158, 11302, 
    14453, 14086, 10699, 18898, 30598, 16481, 15514, 16819, -8583, -5219, 
    9143, -16143, -3360, -4845, 163, -6652, -4000, -3293, -10580, -4863, 
    -9075, -4658, -3514, -6649, 14745, 18366, 13527, 17221, 10206, 16245, 
    13645, 15222, 11621, 15570, 12378, 14277, 17688, 15999, 13138, 15321, 
    -11031, -17454, -3542, 609, -2895, -5617, -8578, -7405, 1894, -6022, 
    -4774, -7992, -1554, -8928, 5025, 4641, 
};
const TfArray<1, int> tensor_dimension20 = { 1, { 96 } };
const ALIGN(8) int8_t tensor_data21[7168] = { 
    -127, -75, -30, -13, -10, -58, -31, -11, 39, -62, 
    -41, -32, -41, 44, -86, -19, 35, 21, 14, -50, 
    -81, -40, -54, -29, -77, -67, 17, -62, 4, -10, 
    -30, -49, -41, 27, -22, -4, -52, 8, 7, -6, 
    55, -44, -70, 25, 1, -34, 9, -63, 60, -30, 
    -7, -72, 39, 65, 13, -14, 35, 11, -35, 42, 
    36, -64, -13, 60, -126, 65, 95, 38, 33, 39, 
    45, 96, 93, 56, -82, 10, -37, 64, 91, -40, 
    118, -39, 68, 38, -21, 49, -8, -38, 21, 60, 
    33, -32, 77, -57, -4, -25, -25, 53, 48, -25, 
    -13, 0, 51, -22, 26, -77, -38, 59, -18, -20, 
    7, -78, -21, -47, -40, 26, 13, -21, 57, -31, 
    66, -35, -5, 26, 30, 42, -35, -13, 33, 55, 
    -37, -88, 26, 23, -17, -14, -22, 82, -3, 3, 
    17, 62, -14, -71, -69, 10, -78, -7, 85, 19, 
    32, 39, 61, 8, -31, 8, -34, -27, -7, -9, 
    -98, 87, 58, 29, -37, 20, 1, -19, 92, 102, 
    -57, -114, -55, -69, 72, -52, 73, 24, -77, -45, 
    10, -16, -25, 68, -106, -16, -32, 77, 29, 72, 
    75, 63, 7, 38, -26, -46, 31, 13, -61, 7, 
    22, -29, -10, 36, -61, -9, 23, 24, -19, -17, 
    32, 76, 79, 63, 30, 73, 23, -15, -21, -73, 
    78, -57, -5, 118, -119, -16, -36, 3, -75, 34, 
    -28, 63, 11, 34, 49, -75, -79, 70, 62, 30, 
    43, 127, 34, 54, 52, 13, 28, -38, -52, 65, 
    75, 50, -22, 80, -14, 9, 127, -9, -69, -2, 
    -13, -6, -15, -65, -87, -9, -31, 30, -45, -1, 
    -67, -6, -60, -33, 7, 49, 34, 35, -33, 92, 
    21, 15, 24, -40, -20, 3, 14, -65, 49, -10, 
    4, 22, 32, 90, 51, -1, -4, -15, 21, 70, 
    78, 24, -67, -63, 25, 3, 34, -29, -5, -53, 
    1, 1, 123, -66, 29, 62, 12, 59, -66, 29, 
    26, -35, -4, 4, 1, -28, 40, -69, -124, 49, 
    6, -50, -9, 32, 26, -21, 15, 22, -21, 6, 
    -51, 52, 26, -55, -16, 44, 41, -39, -57, 7, 
    -117, 27, 33, 75, 24, 31, -47, 83, -1, -40, 
    6, 65, 6, 44, 12, -6, -13, 67, -53, 80, 
    -27, 29, -59, -22, -87, -32, -22, 50, 92, 14, 
    39, 80, 80, 53, 20, -35, 43, -36, 14, -9, 
    -48, 57, -17, -35, -67, -22, -10, -32, 37, 24, 
    -32, -40, -9, 58, -29, 2, -54, 34, -12, 69, 
    16, -38, -3, 61, -17, -1, -42, -4, -13, -10, 
    -69, -42, 59, -34, -48, 16, -92, -127, -61, 23, 
    -24, 17, -18, 62, 34, 4, 53, -79, -85, -45, 
    -64, 98, -58, 21, -39, 69, 49, -17, -41, -65, 
    -10, -26, -89, -27, -20, -59, -44, -76, -94, 60, 
    -127, 25, 50, 42, -34, -9, 28, 30, -62, -91, 
    61, -60, -85, 37, -123, 22, -18, -21, 35, -53, 
    83, 36, -35, 38, 7, 31, 35, 19, -88, -67, 
    -38, -25, -34, 52, -74, -39, -9, -38, -21, 44, 
    -34, -11, 16, 34, 39, 34, 35, 21, -26, 26, 
    -69, 36, 35, -24, -16, -4, -78, -68, 43, -7, 
    4, -10, -43, -13, -18, 8, 39, -12, -67, -22, 
    17, 18, -18, -4, -31, -33, 2, 42, 42, 33, 
    -38, 23, 41, 8, 59, -51, -47, 75, -18, 81, 
    -14, -43, -43, -77, 70, -66, 72, -25, -59, -43, 
    -33, -31, 27, -29, 31, 16, -56, 38, -3, -37, 
    -8, 62, 21, -113, 58, 66, 19, 44, 27, 72, 
    -19, 13, 62, -9, 50, 23, 63, 13, -38, 21, 
    -2, -31, -65, -26, 8, -59, 31, 34, -51, 58, 
    13, 47, -69, 23, -25, 63, 53, 20, 31, -20, 
    29, 54, -27, 36, 11, 6, -52, -18, -14, -49, 
    40, -39, 0, -29, 26, -7, -1, 32, 16, -32, 
    29, 50, -4, 88, 69, 9, -8, 15, -77, 21, 
    -25, 112, 30, 111, 44, -26, 33, -7, 60, 26, 
    -34, 2, 25, -13, -71, -14, -18, 102, 7, -108, 
    -1, 0, 30, 14, 97, -16, -102, 54, 38, 32, 
    76, 9, -40, 47, 72, -96, 30, -8, 43, -33, 
    13, -7, -19, 37, -4, -20, -53, -19, 38, -68, 
    -55, -23, 86, 5, 8, 104, -107, -44, -7, -51, 
    -35, 76, -22, -5, 48, -3, 37, -28, 39, -30, 
    -100, 29, -10, 22, 39, -33, -2, -107, 39, 0, 
    -89, -25, -21, 6, -59, 61, -79, -38, 106, 12, 
    2, -54, -56, 31, 11, 14, 45, 4, -59, 36, 
    -62, 12, 34, -55, 40, -18, -35, -6, 44, 54, 
    -11, -25, 25, -9, 58, 19, 9, 46, -15, 78, 
    -21, 18, 78, -54, 43, -3, 7, -67, -40, 64, 
    -9, 0, -48, -36, -49, -17, 18, -61, -10, 66, 
    -53, -102, -20, 7, -45, 27, -74, -55, 3, -3, 
    -47, -64, 61, 23, 16, 46, 91, -9, -39, -7, 
    97, -74, 48, -90, 79, 62, -27, -51, 32, -15, 
    -53, -35, 19, -66, -3, -29, -69, -69, -63, 4, 
    -60, -10, 32, 40, -57, 12, -65, 14, -39, -18, 
    69, -97, 22, -79, 28, 21, -52, -60, -40, 2, 
    4, -13, 84, -29, 19, 28, 44, -14, -18, -73, 
    -4, -15, -24, 32, 61, -42, 15, -90, -35, -48, 
    12, -61, -13, 56, -64, 11, -43, -7, 43, 24, 
    68, 23, -64, -86, 26, -8, -28, -46, -35, -11, 
    34, 68, -29, -40, -45, 19, 41, -5, -11, -36, 
    -53, -80, -71, -83, 33, -42, -35, 26, -72, -9, 
    -26, 48, -66, 37, 58, 37, -49, -16, -36, 17, 
    -127, -75, -69, -7, -87, -55, 66, 89, -26, -59, 
    -28, -1, -62, -49, 16, -43, 37, -1, -86, -30, 
    29, 15, 42, -16, 12, -44, -28, 63, 73, -12, 
    -39, -22, 25, 46, 25, -2, -37, -65, 0, 11, 
    83, -90, 27, -33, -11, 32, 28, -11, -11, 45, 
    -73, 63, 27, 61, -65, 18, -46, -40, -10, -66, 
    -31, -45, -83, -6, 0, -33, -47, -5, 53, -78, 
    -15, -41, -3, -8, 43, -17, 90, 55, -48, 91, 
    -75, 64, -51, -27, -14, -5, -30, -25, -32, -27, 
    -29, -80, -63, -41, -6, -63, -16, 18, 90, -49, 
    -84, 12, -20, -48, 16, 18, -29, -59, -34, 44, 
    -52, -5, -42, -18, -3, -4, 11, -15, -3, 7, 
    8, -30, -4, 4, 16, 62, -19, -20, -10, -22, 
    36, -60, -3, 44, -21, 23, 51, 26, 33, -41, 
    11, 26, -48, -39, 42, -31, -62, -57, 82, -21, 
    -59, 27, -28, -79, 83, -10, -45, 70, 127, 11, 
    3, 41, -55, 46, -28, 69, -93, -77, 38, 5, 
    44, -77, -3, 19, -44, -18, 2, 10, -29, -41, 
    -18, 30, -13, 29, 10, -55, -105, -26, 73, 41, 
    18, -74, -62, -54, -51, -79, -33, -46, 32, 58, 
    -22, -43, -72, 15, 45, -43, -22, 55, -73, 21, 
    -34, -26, 73, -36, 2, -22, -47, 17, -13, -28, 
    -29, 2, 70, -10, 0, 43, 43, -59, 43, 0, 
    -69, -39, 39, 13, 55, 19, 72, -65, -24, 3, 
    21, 17, 79, -36, -69, 36, -7, -33, 49, -60, 
    -68, -19, -67, -21, 32, 7, 9, -72, -21, -51, 
    15, 27, 11, -19, -127, 73, 1, -8, 47, 64, 
    -32, -32, 19, -81, -42, -61, 25, -47, 54, 38, 
    -58, -46, 70, -59, 33, 81, 23, -43, 13, 79, 
    -63, 85, -64, 1, 25, -8, 86, 65, 28, -127, 
    -5, -53, 85, -51, 63, -69, 22, -78, -42, 12, 
    -108, -9, -2, -9, 41, -22, 9, -38, 31, -81, 
    -12, 7, 48, 42, -3, 65, -84, 28, -18, -45, 
    42, 20, -68, -55, 8, 56, 75, 53, 68, -30, 
    28, -17, -52, -34, 36, -58, -62, 38, 1, 34, 
    -48, -57, 56, -20, -16, 38, 7, -27, -22, 41, 
    -52, 8, -29, -32, -78, -11, 38, 86, -29, 46, 
    59, 51, 2, -85, -14, 11, -45, 3, -4, 38, 
    -66, 54, -43, -22, -71, -41, 12, 38, -57, -30, 
    10, -33, 19, 64, 47, -14, 16, 69, -29, 31, 
    -2, 86, -100, -42, -58, 13, 54, 21, 21, -11, 
    -29, -53, -23, -22, -50, 18, 31, 38, 50, 18, 
    -126, -70, 34, -21, 3, -127, 11, -19, 35, -68, 
    10, -97, 4, -45, 65, -63, 24, 50, -17, -73, 
    57, -107, -15, 81, 17, -25, -25, 33, 48, 43, 
    -24, 28, 28, -8, -74, -50, 20, -13, 61, 111, 
    76, -31, -4, -13, 97, 20, -44, 64, -61, 40, 
    -17, 26, -57, 53, -37, 46, -15, -6, 51, -2, 
    52, -77, 25, -22, -61, -18, 100, -3, -56, 28, 
    85, 66, -4, 35, 27, 31, 45, 27, 53, 65, 
    45, -29, -31, 59, 8, 21, -51, -45, -39, -25, 
    19, -91, 17, 49, 18, 20, 62, 81, 9, 66, 
    -6, -70, 2, -66, 14, -31, -17, -75, 23, -86, 
    60, 2, -57, -26, 38, 31, 0, -36, 25, -34, 
    -36, 2, 4, 66, -116, -30, 71, 65, 31, 50, 
    41, 21, 33, -12, -54, 76, 36, 72, 39, -15, 
    -20, 74, 66, -70, -81, 44, 72, 25, -2, -34, 
    -27, -61, -53, -2, 18, -49, 66, 63, 54, 35, 
    63, 12, -65, 54, 67, 22, -10, 54, -43, 16, 
    53, 81, -12, -44, -78, -58, -40, 41, 5, -12, 
    47, 47, 5, 0, -65, 47, -62, -50, -92, 20, 
    -40, -12, -54, 40, -20, -41, 54, -4, 29, 11, 
    -16, -56, 75, -38, -13, 38, 30, 37, -19, -1, 
    -18, -43, -7, -36, -47, 33, -31, -11, 8, 3, 
    -27, -7, 20, 16, -18, -15, 39, 11, -26, -35, 
    -18, 52, 26, -7, -14, 5, 14, 21, -25, -30, 
    42, 32, -78, 24, -30, 39, 36, -47, -13, -11, 
    47, 28, -8, 99, 41, 35, 85, -47, 6, -6, 
    -76, 13, -60, -7, -87, -107, 29, 37, 59, -57, 
    -34, 54, -38, 55, 59, -25, -27, -24, -55, -38, 
    33, -21, -93, -39, 27, 47, 19, -14, 58, -35, 
    47, 127, -35, -33, 18, -24, 19, -58, -42, 57, 
    44, 48, 18, -6, -65, 41, -103, -6, -74, 57, 
    11, 1, 127, 66, 22, -60, 7, 48, -36, 87, 
    48, -50, -35, 1, 52, -37, 39, 20, 37, -31, 
    -42, 61, -39, -51, 7, 24, -22, 14, 45, 5, 
    -32, 74, 52, 13, 31, -22, 24, 1, 24, -8, 
    -31, -94, -32, 38, -69, -28, -36, 26, -56, -16, 
    -57, -5, 85, -89, 110, -7, 81, 6, 37, -22, 
    72, 40, -38, -13, 87, -61, -93, 22, 74, 28, 
    40, 0, 3, -64, -45, 64, 0, -2, 76, -9, 
    27, 70, -16, -41, -10, 39, -9, -50, -71, -127, 
    35, -46, -23, -102, -39, -39, 35, -17, -7, 43, 
    65, -17, -72, -10, -60, -22, 9, -85, -15, 38, 
    -61, -27, -26, -69, 40, 66, -53, -7, 57, 68, 
    -51, -3, 23, 46, -31, 60, -27, -104, -4, 75, 
    -34, -13, -59, -53, 51, 32, 72, 50, 71, 8, 
    52, -6, 54, 22, -118, -29, -54, -12, -41, -73, 
    30, -25, -64, -81, -38, -7, 65, 29, -34, 13, 
    -35, 91, -53, 66, -63, -36, 42, -15, 53, 49, 
    65, -58, -65, 105, 29, -2, -7, -72, 60, 32, 
    -53, 6, 68, -53, -2, 51, 38, -68, 59, 29, 
    -60, -16, 41, 20, -36, -38, 47, -87, -1, -56, 
    93, 53, -72, -30, 80, 83, -75, -67, 66, -90, 
    64, 61, 21, 6, -38, 2, -48, 18, -44, -13, 
    -65, 20, 17, -24, 19, -22, -82, -21, -58, -64, 
    -1, 42, 22, -82, 47, 25, 111, -35, -9, -3, 
    60, 35, -44, -80, -35, 41, -33, 3, -58, 11, 
    -21, 22, -27, -8, -29, 59, 17, 119, 74, -93, 
    -69, -33, 127, 87, 41, 16, -25, -56, -41, 26, 
    58, 26, -98, 66, 39, 71, 31, 8, -96, 79, 
    6, 59, -37, 34, 56, -43, 39, -13, 58, 40, 
    -48, -44, 30, 3, 113, 78, -52, 44, 44, -41, 
    15, 8, 72, 17, 15, -7, -32, -32, -27, -7, 
    -13, -44, -80, 47, 56, 40, 61, 32, 16, -69, 
    -43, 3, -65, 89, -15, -40, 23, 6, 11, 85, 
    11, -11, 72, 32, 59, 10, 42, 37, 49, -75, 
    -4, 84, -10, 0, -25, -46, 13, -48, -73, 15, 
    -59, -67, 62, -46, -19, -10, -18, -3, 70, -16, 
    28, 32, 38, 3, 67, -25, 26, 101, 41, 39, 
    -57, 16, 45, 67, 49, -15, 17, -37, 31, 16, 
    44, -18, -11, 55, -40, -34, 43, -56, 45, -24, 
    24, 48, -67, 13, 88, 78, -55, 17, -1, -70, 
    45, -52, 66, 23, 10, 18, 0, -50, -67, 40, 
    -16, -17, 28, -20, -3, 27, -11, 8, 4, 43, 
    32, 33, -45, -12, 61, -37, -100, 11, -24, 47, 
    35, 35, -2, 3, 44, -37, 59, -40, 42, -2, 
    -19, 6, -24, 1, 11, -12, 16, 8, -93, 18, 
    33, -13, 35, -31, -3, -43, 87, 121, 42, -16, 
    -6, -52, -17, 70, -46, -30, 26, 31, -32, 73, 
    -50, -43, -41, 73, -8, 64, 67, 93, -56, -68, 
    27, -14, 9, -33, -53, 20, -33, -114, -46, -53, 
    -46, 16, 44, 24, -11, 29, -62, 35, 10, -35, 
    61, 77, 9, 0, 29, 42, 39, -1, 44, -71, 
    -8, -7, 0, -14, -2, -45, 66, -18, -29, 37, 
    9, -116, -9, -40, -1, -67, -22, -36, -5, -16, 
    -2, -68, -74, -12, 49, -33, -43, -42, 15, 61, 
    23, -16, -31, 8, -16, -24, -68, -12, 82, 74, 
    -86, 43, 49, -30, 56, -21, 32, 18, 3, -17, 
    18, -48, -29, -24, 34, -7, 21, 80, -4, -56, 
    -4, -17, -84, -83, 2, -13, 37, 67, 127, -1, 
    124, 29, 67, 51, -49, 1, 65, -47, 115, 63, 
    11, -13, -67, 65, -53, 42, -5, -26, 44, -12, 
    -92, 5, 43, -29, 54, 47, -29, 4, -13, 36, 
    28, -94, -59, 27, -13, -30, 53, 17, -54, 41, 
    83, -14, 20, 69, 109, -17, 95, -32, 88, 7, 
    -9, 21, 54, 7, 4, -62, 30, -12, -78, 11, 
    -64, 50, 29, -49, -30, 40, 9, 47, 16, -29, 
    -45, 46, 1, -79, 22, -41, 57, 1, 76, 65, 
    127, 30, -17, 57, -11, 52, -29, 66, -33, 72, 
    7, 86, -71, 87, 28, -6, -114, 32, 85, 59, 
    83, 66, -60, -14, 41, 23, 9, 8, -58, 37, 
    -7, 29, 15, 46, -19, -24, 61, -107, -47, -39, 
    -7, 55, -11, 50, 50, -41, -24, -47, 120, -21, 
    56, 82, 67, -36, 36, -10, -17, 17, 80, 0, 
    -17, 105, -1, 84, 14, 12, -32, -97, -12, 27, 
    -68, -16, -68, 93, 19, 87, 80, 81, -75, 71, 
    98, -4, -38, -30, 76, 62, 86, -25, -16, -29, 
    -47, 108, 67, 41, -27, 41, -21, 36, 81, 26, 
    80, 23, 43, -23, 1, 14, -17, 74, 8, 13, 
    55, 52, -18, 84, -9, -20, 65, 11, -23, 59, 
    37, 46, 44, 20, 25, 13, 18, -34, -59, -12, 
    0, 47, -46, 28, -16, -30, -8, -78, -86, -21, 
    -54, -20, 4, 74, 15, 8, 11, 4, -35, 17, 
    -52, 65, 52, -16, -74, -41, -57, -30, 41, -57, 
    -8, 6, 3, 15, 25, -55, -30, -10, -18, 30, 
    29, 22, 9, -67, 62, -87, 15, 42, 45, -46, 
    -46, -68, 24, -20, 14, -59, 24, -7, 31, -25, 
    -46, 55, 13, -62, -93, 38, -9, 82, -91, -65, 
    -6, 77, 52, -40, -11, -23, -6, 40, -56, 32, 
    -55, -127, -49, -26, -13, 30, 16, 0, -54, -40, 
    -43, -1, -48, 77, -13, 10, 50, -3, -64, -69, 
    19, -18, -37, 31, 36, 28, 30, 87, 8, 33, 
    71, 62, -15, -37, 57, 32, 64, 44, 69, 3, 
    66, 44, -54, -41, 7, 45, -44, -26, 26, 46, 
    61, 12, 127, -14, 3, 31, -42, -13, -52, -100, 
    -33, 15, -26, 55, -75, 17, 96, -37, -40, 27, 
    15, -13, -31, -31, 77, -5, 79, -92, -34, -34, 
    -68, -50, 107, -64, 101, 65, 27, 15, -40, -57, 
    4, -87, 32, 32, 5, 27, -10, 51, 64, 45, 
    45, -8, 33, 61, 89, -25, 70, 54, 43, 48, 
    -18, 35, 64, 97, -25, -50, 41, 40, -116, -41, 
    -7, -30, -18, 6, 23, 26, 11, 53, -78, 3, 
    -87, -55, 0, 64, -105, -98, -107, -35, 44, -39, 
    3, 26, 34, -97, -100, 49, 40, -6, -7, 6, 
    -62, 55, -52, -72, -56, 19, -29, -7, 6, 19, 
    -82, 56, -101, -40, -4, 68, 16, 19, -122, -69, 
    35, 82, 40, -25, 29, -68, -92, -73, -64, 57, 
    76, 26, -28, 43, -104, 42, 2, -29, 24, -77, 
    -82, 8, 2, -2, 82, 11, 7, -1, 20, 26, 
    -37, 28, 40, -9, 62, 21, -68, -48, 20, 1, 
    41, 16, -48, -76, -64, -5, 10, -51, 27, 44, 
    -9, -36, 46, -78, 28, 9, 41, 8, -50, -64, 
    25, 35, 18, -67, -52, 37, -17, -8, -57, 19, 
    -34, 26, 53, 12, -73, 6, 58, -109, -27, 42, 
    10, 29, -15, 127, 18, -56, -91, -72, 24, 18, 
    -14, -51, 0, -33, 12, 79, 32, -79, -63, 69, 
    -78, 14, 2, 16, -66, -18, -15, -34, -46, 35, 
    53, 64, -11, 7, 70, 16, 11, 21, 17, -4, 
    15, 15, -28, -20, 22, -23, -54, -30, -16, 17, 
    39, 5, 14, 21, -17, 52, 35, 62, 87, -123, 
    66, 13, 49, -70, 13, 64, 15, 54, -57, 11, 
    -52, -2, -34, 100, -31, -10, -17, 47, -31, -105, 
    -33, 102, -25, -20, -23, -2, 60, -25, -4, 48, 
    -41, 7, 61, 49, 40, 3, -32, 95, -95, 101, 
    -10, -13, 10, 46, 31, 54, -68, -90, 74, 45, 
    -11, 98, -66, 24, -53, 50, 96, 76, 45, -16, 
    -74, 94, 34, -59, 4, 44, -83, 36, -32, -51, 
    -70, -21, 57, -42, -57, 33, -62, 37, -51, -16, 
    28, 17, -21, -86, -14, -90, -74, 127, -12, 48, 
    33, -96, 52, -28, 52, 7, -50, -37, 53, 17, 
    48, -60, 29, -16, 1, -10, -5, 45, -53, -34, 
    7, 70, -17, 109, 21, 9, 47, -56, 51, 55, 
    2, -48, 29, -114, -48, -34, 53, 15, -66, -42, 
    9, -1, -9, -38, -6, -31, -51, 57, -30, 2, 
    13, 40, 6, 4, 30, 4, 10, 45, 9, 27, 
    -15, -21, -56, 62, -51, 84, -79, 28, -3, -86, 
    -72, -17, 13, -94, -93, 65, -59, 29, 4, -18, 
    -3, -67, -39, 17, -35, -91, -16, 47, 83, -102, 
    -1, 60, 47, -15, 0, -43, -6, -50, -58, -25, 
    64, 43, -8, 56, 29, -6, -63, -53, -107, -9, 
    46, -2, 54, -18, 86, 10, -33, -13, -30, -40, 
    -65, -69, 12, -23, 39, 11, -30, -28, 30, 31, 
    -37, 68, 20, 52, -35, 37, -3, -77, 58, -42, 
    -49, -55, -44, 57, -28, -70, -54, -33, -69, -16, 
    39, -2, -22, 54, 15, 15, 22, 47, -38, -65, 
    -21, 41, 37, -58, -56, 37, -81, -20, 26, -45, 
    1, 17, -25, -39, 26, 34, -22, 105, -13, -17, 
    42, 60, -1, -1, -36, 36, -84, -52, -29, -9, 
    -64, 64, -13, 6, 90, -91, 71, -3, 6, 73, 
    89, 15, 26, 119, -42, 4, 8, 58, 20, 90, 
    30, -23, 62, 8, 73, -45, -63, 80, -1, -36, 
    97, 44, 85, 47, -70, -49, -71, 27, -77, -90, 
    -127, -84, 37, -21, 35, -89, 53, 38, 35, -35, 
    -6, -46, -42, 33, -2, 79, -36, 61, -95, -38, 
    89, 98, 44, -102, -77, 117, 54, -15, -54, 91, 
    -35, -4, -94, 3, 19, -15, 49, 49, -37, 103, 
    111, 62, -58, -10, 3, 17, -56, 24, 61, 38, 
    22, -65, 3, 32, 54, -30, -84, 15, -25, -15, 
    8, 31, -45, -56, -49, -50, -6, -27, 59, 2, 
    21, -75, 65, -30, -59, 40, -57, 37, -27, -14, 
    61, -47, 54, -45, 90, -10, 25, -20, 18, -37, 
    -36, 15, 41, 38, -3, -69, 31, -20, 48, -56, 
    -39, 37, -31, -19, 15, -56, -41, -16, 4, 63, 
    34, -74, 8, 21, -42, 1, -5, 34, -14, -39, 
    -45, -13, 65, -11, -43, 49, 49, -25, -57, -5, 
    -105, 82, 14, -96, 30, -38, -47, -68, 22, 34, 
    -1, 20, -28, -3, 44, 41, -88, 4, -10, 3, 
    34, -6, -62, -24, -6, -46, -62, 23, -25, 31, 
    -8, -12, 15, -16, -26, 43, 35, -39, 51, -11, 
    -17, 60, 27, -30, -56, -10, 12, -38, 34, -40, 
    -39, 53, -43, 45, -73, -11, 33, -73, -44, -26, 
    -53, 38, 67, -40, -37, 63, 44, -42, -45, 36, 
    -46, -35, -2, -10, 45, 20, -28, -31, 100, -58, 
    35, 61, -22, 44, 27, 47, -35, 56, 84, -56, 
    -36, 74, -53, 64, 74, 9, 52, 41, 45, -9, 
    -24, -79, 3, 90, 83, 19, 69, -40, 1, 63, 
    64, -7, -35, -9, -50, 21, 9, -63, 7, 31, 
    56, -44, 35, -23, -17, -93, -55, 63, -51, -53, 
    109, -89, -26, 42, -61, -83, -69, 0, 83, -12, 
    25, 1, -40, -37, 20, 5, -9, -76, 57, -59, 
    33, 36, 53, 61, -30, 1, 9, 68, -51, 14, 
    -39, -34, -69, -33, 67, -60, -51, -59, 60, 24, 
    48, -57, 70, 51, 14, 30, -13, 6, 53, -4, 
    12, -36, -6, 74, 17, 87, 13, -5, -35, 15, 
    21, 0, -44, 48, -96, 22, -29, -79, 12, -37, 
    9, 9, 11, -10, 17, 70, 33, -17, 75, -57, 
    -24, 80, -22, -35, -6, -41, 47, 23, -93, -17, 
    27, -1, 52, -47, 89, 19, 28, 75, 36, 6, 
    52, -22, -13, -8, -94, -68, -21, -66, 53, -60, 
    -57, -78, -33, -3, 53, -1, 71, -71, 7, -82, 
    6, -49, 0, 32, -64, 35, -3, 2, 31, -91, 
    -32, -6, -61, -65, -41, -70, -28, -19, -39, -66, 
    28, 34, -10, -44, 34, 17, -68, 62, 33, -38, 
    66, -73, 64, -53, 48, 37, 1, 37, 127, -34, 
    88, -55, -6, 81, -12, 43, -5, -55, -18, 9, 
    122, 72, -65, 17, 15, 102, 42, -26, 36, 17, 
    6, 10, 80, -68, -80, 112, -49, 64, 33, -39, 
    3, -46, -57, 26, -65, -34, 52, 44, 78, 12, 
    -58, 59, 23, -73, 29, -26, -38, -28, 14, -12, 
    19, 11, -3, 69, -67, -53, 6, 6, -34, -28, 
    52, 25, 115, -13, -8, 29, 84, -24, -7, 62, 
    6, -93, 49, 68, 91, -75, 75, -39, -32, -16, 
    7, 29, -33, -37, 50, -47, 48, 38, 76, 35, 
    50, -54, 84, 7, 47, -95, -94, 13, -21, -14, 
    102, 25, 100, 52, -10, 16, 51, 20, 21, -59, 
    20, 7, -5, -10, 7, 28, -81, 80, 99, 49, 
    -32, 51, 11, 12, 30, 127, -40, 91, 10, 5, 
    -49, -50, 82, -94, -61, 50, 44, 6, 100, 19, 
    -7, 30, 69, -8, -49, 21, 54, -8, -76, 8, 
    -31, -52, -22, 32, 55, 29, 66, 24, 6, 10, 
    -19, 63, -54, -33, 5, 50, -3, -23, -40, 40, 
    -22, -42, 17, 10, 26, -3, -8, 15, 3, 74, 
    -59, -61, -6, -55, 65, -2, 18, 24, -4, 16, 
    23, 16, -20, -15, 13, 22, 55, -48, -11, 70, 
    -28, -54, -22, -62, -26, -19, -53, -42, 23, -37, 
    28, 22, 42, -37, -77, -17, 45, 47, -13, 39, 
    61, 4, -28, -77, 11, -51, 79, -37, -103, -92, 
    -22, -14, 67, 72, 24, 64, -59, -22, -69, 40, 
    -64, 19, 61, 52, -56, -45, -40, -37, -5, 33, 
    9, -26, -47, 31, -30, 33, 7, 11, 22, 23, 
    -35, 66, -50, 11, -53, -61, -62, 35, 77, -21, 
    53, 25, 9, -57, 8, 8, 6, -62, 6, -58, 
    100, 31, 11, 101, -34, -33, 3, -61, 40, -20, 
    97, -61, -3, -95, -58, 0, 2, 5, -72, -19, 
    -46, 65, 103, -7, 20, -13, -45, 2, 7, -88, 
    62, -41, 13, -99, -5, 46, -55, 17, -27, -54, 
    6, 54, 87, -54, 52, 50, -2, 57, 13, 39, 
    -34, -10, -127, -42, 41, -48, 32, 17, -84, 18, 
    5, -29, -23, 86, 39, -55, -50, 15, 78, 22, 
    -4, 78, -5, -64, 84, -64, 55, 86, 75, -23, 
    -92, -67, -10, 29, -79, -74, 73, -60, 18, 63, 
    -67, 66, 94, -3, -17, -87, -39, -87, 27, 17, 
    -17, -41, -17, -1, 30, -9, 105, -72, -70, -43, 
    -44, -97, -23, 19, -69, -14, 6, -2, 13, 45, 
    -15, 23, -21, 40, -4, -50, -32, -35, 0, 62, 
    40, 24, 25, 127, 65, 95, -24, -53, 68, -35, 
    -55, 58, -6, 99, 83, -53, -47, 27, -6, -52, 
    -18, 71, -17, 24, -60, -7, 12, 44, 76, 91, 
    93, -25, -7, -40, -3, 51, -21, -127, -118, 32, 
    44, -49, 92, -17, -17, 25, -40, 72, -48, -57, 
    22, -40, 64, -75, -42, 77, 4, 15, -118, 57, 
    -53, -27, 14, 6, 68, -37, -39, -11, -1, -62, 
    40, -58, -6, -18, 107, -54, -49, -89, -16, -72, 
    -1, -29, 87, -16, -32, 2, -39, -9, 24, -77, 
    -27, -94, -29, 59, 21, -90, 32, 10, -59, -70, 
    -41, -65, -23, 60, 50, 100, 25, 1, -33, -6, 
    36, 8, 48, -35, -12, 31, 21, -3, 27, 14, 
    30, 43, -10, -6, -3, 38, -33, -36, 60, 18, 
    -46, -8, -75, -24, -10, 4, 46, -31, 6, -62, 
    43, -27, 27, 42, -9, 10, 8, -27, -58, -117, 
    -41, 17, -62, 37, 40, -105, -17, -2, 74, -36, 
    67, 42, -46, 87, 8, 47, -42, -60, 4, -23, 
    -18, 42, 8, 13, 32, -11, 57, -19, 58, -49, 
    14, 44, -11, -9, -53, 67, 52, -15, 3, 88, 
    9, -69, 56, 70, -20, -6, 13, -37, -17, -44, 
    115, -7, -7, 73, -71, -50, 16, 58, 38, -17, 
    29, -38, 65, -41, 24, 6, 5, 67, 50, 21, 
    -4, -13, 3, -41, -43, -62, 18, 15, 7, -20, 
    48, -41, -28, 13, -35, 37, 67, 123, -50, -44, 
    85, -44, -67, 103, -27, 53, -70, 52, -40, -23, 
    42, 80, -13, -83, -37, -66, 18, -60, -86, -57, 
    38, -52, 64, 28, 3, -67, 14, -33, 42, -57, 
    30, 127, 90, -10, 7, -37, -21, 60, -20, 20, 
    40, -8, 3, 9, 51, 60, -19, -54, -43, -67, 
    48, 9, -12, 20, -3, 4, 35, 65, -20, -90, 
    -54, -20, 3, -31, -96, 52, -53, 29, -65, -52, 
    33, 6, 54, 19, -23, 47, 28, -66, 49, 48, 
    93, 30, -18, 30, -40, 24, 36, -35, -45, -12, 
    43, 60, 42, 11, -72, 53, 73, 1, -1, -6, 
    -59, 11, -28, -40, 41, -85, -13, 46, 94, -12, 
    47, -31, 46, -16, 37, -54, 44, 53, -23, 53, 
    40, 22, 15, -28, 43, -28, 32, 68, 31, 33, 
    59, 34, 9, 61, 10, 40, -1, 26, -127, 66, 
    52, -6, -3, -22, 127, -28, 91, -52, 0, 58, 
    41, 59, -64, 38, -3, 61, 44, 60, 68, -41, 
    -76, -25, 10, 58, -33, -94, -23, -2, 71, -85, 
    -12, 1, -51, -101, 97, 18, 22, -116, 9, 17, 
    25, -121, 31, 36, 92, 90, 91, -13, 7, 15, 
    52, -120, 48, 11, -74, 127, 67, -1, 27, 10, 
    -24, -73, -4, 30, -16, 37, -19, -115, -17, -9, 
    87, 62, 1, -100, -22, 95, -62, 42, -44, -14, 
    63, -22, 45, -79, 2, -58, 48, -81, 82, 56, 
    6, 21, -54, -64, -49, 5, -39, -23, 50, 3, 
    -71, -73, 72, 18, 14, -62, -44, 65, 28, 21, 
    55, 2, 26, -32, 10, -31, 21, -15, 59, 17, 
    -12, -34, 51, -40, -28, -21, 19, -78, -6, -14, 
    -86, -32, 12, 72, -52, 49, 40, 80, -80, -86, 
    -64, 43, 48, 1, -14, 58, -69, 35, 8, 16, 
    83, 6, -27, -19, 28, 78, 98, 72, -25, -19, 
    127, -37, 70, -74, 56, -90, 31, -32, 62, 33, 
    -22, 55, 45, -80, -3, 13, 33, 89, 57, 52, 
    3, -43, 43, -9, 27, 86, 64, 43, 46, 15, 
    -7, -46, -3, 3, -65, -20, 68, 21, 37, -27, 
    -1, 37, -45, 1, 33, 44, -41, -38, -42, -47, 
    -53, 29, 13, -4, -32, -57, 38, -18, -21, -127, 
    10, -34, 15, -31, -51, -40, 51, 46, -17, 78, 
    -48, -8, 68, 73, 22, -51, -27, 6, -52, -22, 
    69, 34, -59, 69, -13, -37, 19, -42, 41, -17, 
    -17, -45, -11, 77, 24, -6, -25, -6, -36, 27, 
    -33, -7, 8, -48, 11, -69, 55, -73, -23, -28, 
    27, -98, -69, -24, -98, 26, 67, -5, -41, -18, 
    64, -39, 70, -23, -61, 38, -57, -59, -19, 18, 
    -71, 9, -10, 15, -59, 32, 8, 46, -24, 15, 
    56, -42, 2, -10, 48, 57, -20, -21, -3, -46, 
    32, 24, 1, 76, 75, 79, 45, -19, 31, 28, 
    -14, 20, 65, -52, 81, 58, -44, -58, -4, -29, 
    -10, -20, 13, 6, 13, -48, -18, 46, -59, 7, 
    39, 47, 41, -16, -62, 3, -44, 51, -2, -37, 
    -34, 93, -19, -68, -8, -17, -31, -25, 73, -14, 
    24, -24, -44, -33, 23, -29, 53, -38, -44, -16, 
    -11, 46, 20, 11, 70, -55, 14, -40, -34, -85, 
    60, -58, -22, -112, -80, -48, 84, 38, -71, -17, 
    -60, 46, -63, -45, 10, 36, 89, 15, 37, 41, 
    -38, 22, -96, 31, -35, 31, 45, -2, 66, -29, 
    80, -19, -59, 42, -47, 87, -67, 52, 1, -12, 
    4, 32, -64, -50, 35, 2, 64, -53, 64, -60, 
    -64, 54, -29, -22, -25, 37, -4, 82, -8, -50, 
    48, -11, -87, -83, -33, -35, 24, -73, -48, -30, 
    -51, -2, 37, 37, 29, 20, 41, 40, 73, 2, 
    -57, -7, -1, 36, 49, -57, 49, -12, -31, -35, 
    -22, 6, 15, 21, 14, 39, 0, 4, 53, -63, 
    93, -72, 95, -97, -75, -123, -34, 7, 65, 16, 
    -67, -4, -57, 57, -17, 8, 39, 40, -76, -84, 
    -7, -83, -76, 114, -34, 76, 64, -36, -92, 35, 
    -43, -3, -74, 13, 8, 26, -6, -4, -56, 67, 
    44, 34, -23, -14, 40, 8, 39, -2, 17, 33, 
    15, -13, -59, -18, 23, 36, -42, -45, 44, -42, 
    56, -41, -73, -21, -12, 2, 82, -20, -71, -27, 
    58, -101, -63, -54, 39, 9, -23, 22, 42, -24, 
    -49, -55, -22, -75, -4, -43, 58, -44, -41, -28, 
    13, -127, -12, 36, -17, -58, -74, 1, 5, 50, 
    -62, -42, -70, -14, -37, 66, 37, 20, -21, -35, 
    84, 56, 58, -69, 1, 47, -49, -55, 22, 56, 
    -19, 77, 52, 58, -43, -65, 54, 43, 90, -45, 
    -108, -109, 14, 99, -125, 61, -29, 42, -57, -54, 
    58, 67, -48, 69, -39, 123, 90, 58, 78, -40, 
    -23, -34, -116, 35, -16, 9, 1, -30, -6, -38, 
    -20, -7, 75, 98, -6, -27, 72, 2, 1, -67, 
    19, -20, -33, -39, -15, 24, -13, -80, -30, 53, 
    28, 8, 3, -22, -32, 46, -95, 6, 93, -36, 
    5, 56, 33, 6, 41, -59, 80, -85, -7, -20, 
    95, -26, -11, 105, 33, -41, -95, 8, 54, 80, 
    -18, 33, 20, -51, -5, -6, -29, -56, -30, -14, 
    39, 45, -7, 12, 37, 0, -71, -49, 80, 86, 
    65, 18, 103, 78, -17, 74, -8, -52, 11, 73, 
    58, 107, 60, 67, -23, -78, 11, 63, -6, -55, 
    -6, 126, 79, -48, 84, 56, -31, 55, -54, 23, 
    68, -8, 49, 39, 48, 28, -8, 15, -4, -72, 
    -6, 45, 30, -37, -58, -44, -51, 82, -56, 53, 
    24, 17, -36, 3, 75, 23, 19, 2, 22, -6, 
    -47, -86, 32, 43, -9, -77, 8, 53, 7, -1, 
    -38, -59, -46, -70, -29, -35, 22, -46, -70, 5, 
    27, 6, 14, 44, -39, 42, 69, 49, 28, -80, 
    6, 38, -72, 94, -88, 11, 19, -38, -56, -37, 
    28, -20, -54, -86, -76, -21, 51, -18, -39, 64, 
    32, 2, -68, -35, 16, 27, -80, 17, -78, -50, 
    -12, -14, -31, -9, -37, 43, 20, 57, -32, -61, 
    55, -8, 72, 37, 83, -48, 22, 0, 2, -39, 
    -40, -9, -59, 37, -88, 45, 25, 81, -19, -19, 
    81, 74, 62, 19, -18, -79, 28, -65, 35, -127, 
    5, -42, -65, 16, -14, 32, 65, 103, -25, 47, 
    -22, 47, -71, 77, 70, -93, 50, 23, -19, -36, 
    66, -100, 38, -14, -38, -99, -24, 85, 47, -92, 
    95, -15, 58, -47, 18, -39, 57, -73, -24, 24, 
    17, 22, 3, -24, 71, 10, -37, 37, -46, -58, 
    12, 10, -4, -14, -9, 31, 56, -64, -11, -37, 
    38, -50, 42, -20, -43, 54, 112, -41, 35, -8, 
    -67, -84, -84, 74, 69, 63, -2, 21, 59, 127, 
    -17, -41, 12, 50, -47, 6, 97, -7, 45, 71, 
    11, 0, -65, -29, 36, 54, -33, 23, -43, -14, 
    -10, 29, -72, 48, -100, 27, 10, -40, 34, -21, 
    -49, 35, 68, -28, 75, -7, 74, 35, -3, 57, 
    -32, 68, 74, 14, 9, -31, -27, 73, 0, -3, 
    -67, 29, 34, -97, -16, 11, 29, 49, 33, -73, 
    -43, 0, 50, 24, 10, -10, 106, -14, 47, -50, 
    -40, 58, 4, -27, 24, -48, 28, -18, -26, 25, 
    40, -4, 13, -63, -127, -67, -48, 17, -29, -117, 
    -31, -60, 26, 40, 33, -46, 7, 53, 15, -60, 
    35, 32, -77, -39, -87, -2, 58, -58, 35, -48, 
    -1, 49, -38, 14, -12, -36, -52, 12, 54, -20, 
    19, -62, -16, -3, -70, 7, -60, -7, -18, -45, 
    2, 31, -3, -14, 42, -31, -87, 25, 10, -39, 
    -74, -30, 45, 92, -4, 100, -38, 81, -10, -12, 
    -91, 58, -30, -87, 53, -13, 28, -11, 2, -9, 
    -42, -63, -93, -25, 22, 55, -9, -35, 122, 14, 
    -62, -66, 52, -40, -3, -65, 78, 12, 10, -92, 
    -95, 103, 94, 98, -48, -65, 61, 29, 52, -90, 
    78, -17, 22, 76, 82, 59, 41, 6, -59, 44, 
    -96, 3, 80, 106, 53, 45, -53, -33, 35, 60, 
    75, 30, 11, 55, 64, -32, 34, 29, 6, -7, 
    65, 75, -10, 47, -92, 31, -13, -70, 10, 47, 
    15, 15, -37, -45, 56, -30, -52, 66, 44, 36, 
    3, 34, 50, -31, 47, -40, 102, 93, -22, 14, 
    -81, 46, 39, 98, 84, -120, 18, -78, 35, -49, 
    84, 14, -34, 32, -10, -4, 46, 63, -39, -18, 
    -44, 18, 65, -30, -1, -80, 16, -3, 35, -29, 
    -30, -41, 56, -26, -24, 14, -9, -32, -31, 27, 
    4, 13, -27, 12, -3, 58, 29, -5, 41, -124, 
    -79, 9, -18, -27, 59, 57, 63, -15, -15, 57, 
    14, -37, 51, 32, 13, 46, -6, 32, 73, 54, 
    10, 16, 16, 17, -8, 29, 28, 17, 59, -18, 
    4, -9, -9, 79, -49, 25, 5, -41, 22, 3, 
    97, -21, -60, -31, 17, 42, 35, 24, -59, 41, 
    64, -18, 12, -84, -65, -60, 13, 55, 56, -34, 
    -7, 7, 34, 50, 30, -42, -5, -61, 75, -22, 
    -46, 19, 3, -19, 13, 53, -64, 24, 7, -10, 
    -50, -16, -57, -1, 60, -50, -44, -3, -116, 3, 
    30, -12, 17, -69, -27, -4, 28, -30, -54, -48, 
    -20, -77, 89, -32, 63, 19, -20, 37, 115, -37, 
    59, -30, 50, -12, -62, -14, 26, -5, -53, 54, 
    -86, 35, 80, -40, 21, -36, 52, 13, 60, 28, 
    -7, 99, 83, -49, 18, 49, 124, 74, 20, 66, 
    -11, 90, 42, -103, 75, -32, 20, 101, 5, 86, 
    -69, 46, 10, 1, 80, -102, 30, 36, -26, -40, 
    43, -48, -62, 76, -9, -31, -4, -18, -1, 34, 
    11, -65, -48, -28, 85, -24, 16, 57, -5, 5, 
    34, 16, -44, -8, -11, 24, -31, -31, 38, 11, 
    127, -20, -11, -77, 77, -45, -61, -3, 69, -5, 
    -62, -75, 32, 62, -14, -38, -34, 28, 94, 91, 
    -48, -7, -35, 30, -14, 42, -26, 12, -26, -14, 
    -87, 71, -3, -47, 14, -17, 31, -17, -56, -7, 
    -19, 64, -10, 18, -6, -60, 80, 17, 47, -25, 
    -34, 35, 5, 76, 2, 24, -54, -81, 3, 0, 
    -3, -8, 49, -32, -71, -37, 35, -29, 9, 62, 
    64, 64, 87, 18, -32, -30, -2, -45, -20, 48, 
    -94, -115, 51, 37, -59, -6, -16, 36, -23, 57, 
    30, 82, 88, -4, 18, -58, -22, 67, -53, -37, 
    -13, 22, 23, -26, 17, -7, 12, -37, 7, 23, 
    -13, 28, 10, 49, 34, -13, 29, -28, 3, 43, 
    -21, -33, -76, 9, -10, -2, -9, -11, -39, -59, 
    -92, -57, -63, -30, -87, 21, 42, 60, -4, -80, 
    -13, -51, -63, 14, -47, -18, -10, -68, 42, -73, 
    21, 41, 82, -51, 17, 28, 68, -21, 68, -12, 
    -17, -54, -94, -99, 23, -76, 29, 21, -40, -103, 
    79, -78, -65, -86, -29, -11, 46, 55, 51, -36, 
    43, 59, -100, 48, 34, 43, -75, 18, -12, 41, 
    -18, 17, -65, -40, 95, 103, 43, 27, 74, -54, 
    -52, 33, -26, 127, -68, 79, 45, 32, 81, -46, 
    -70, 27, -71, 1, 85, 51, -3, 7, 107, 64, 
    -12, -61, -30, -63, 31, 35, 14, -127, -35, -27, 
    -56, -93, -26, -115, -11, -13, 90, -31, -59, -50, 
    -11, -40, 35, -89, 11, 3, -27, 44, 107, -13, 
    -24, 14, -39, 69, -41, 0, 16, 23, 26, 51, 
    -59, 18, 88, 15, -42, 45, 92, -4, -66, 28, 
    20, 28, 29, 39, -84, 100, 10, 86, -90, 15, 
    55, -24, -10, -8, 9, -7, 9, -84, 8, 31, 
    -20, 74, 44, 11, 69, 53, 35, 8, -72, -43, 
    10, -14, -59, -24, -9, -14, -15, -35, -16, -33, 
    -35, 79, -52, -20, -36, -92, 38, -21, 26, 57, 
    7, 40, 45, 29, 51, -53, 84, -20, 56, 14, 
    9, -37, 1, 61, -80, -32, -24, -12, -28, -23, 
    34, -2, -29, -58, -24, 48, -32, -41, -24, 43, 
    -34, -19, 33, 71, -23, -32, -57, -82, -51, -29, 
    24, 29, -22, -14, 44, 38, -13, 68, 49, 65, 
    71, -25, -19, -41, -17, -6, -12, -31, -41, 7, 
